tree
version=v4
num_class=1
num_tree_per_iteration=1
label_index=0
max_feature_idx=22
objective=poisson
feature_names=violation_count_lag_1 violation_count_lag_2 violation_count_lag_3 violation_count_lag_6 violation_count_lag_12 violation_count_lag_24 rolling_mean_3h rolling_mean_6h rolling_mean_12h rolling_mean_24h rolling_sum_6h rolling_sum_12h rolling_sum_24h rolling_max_24h violations_last_24h violations_last_7d current_count_minus_rolling_mean_24h is_weekend hour_of_day grid_id dominant_vehicle_type dominant_violation_type day_of_week
feature_infos=[0:123] [0:83] [0:83] [0:80] [0:34] [0:123] [0.33333333333333331:64.666666666666671] [0.16666666666666666:38.166666666666664] [0.083333333333333329:19.083333333333332] [0.041666666666666664:9.5833333333333339] [1:229] [1:229] [1:230] [1:124] [1:230] [1:569] [-6.708333333333333:117.375] [0:1] [0:23] -1:2272:3378:2377:2373:2608:3375:2379:3374:2378:2349:5617:2301:2371:5562:2374:4900:2275:4550:3380:2372:4540:2389:5320:2582:4549:2381:2314:2315:2291:3728:4897:2316:4548:2177:1939:2699:2375:2486:1855:4520:4706:2606:2281:1560:2313:2393:2276:3227:3797:2013:2341:3764:3922:1691:2729:1852:5082:5085:2324:2175:3381:2383:2384:1554:2178:2385:2204:144:1553:2184:2034:2705:2784:2180:2016:2607:5087:994:2386:5564:1703:3376:3798:1858:2182:4097:3667:2279:1786:3180:4626:1951:2409:2599:2304:2399:1466:1702:3142:3200:5620:2174:2584:2302:3868:1308:4542:1307:2287:3222:2376:3372:2014:3452:5570:3155:1265:1694:3187:1701:1779:2727:3557:5541:2726:5319:2271:2288:3920:5554:2943:3377:4746:2283:4519:2294:1869:2277:2380:529:2388:3582:948:1948:3324:1090:2344:3345:3921:4543:5552:2057:2808:2292:2768:3223:3694:1412:3765:997:3217:2611:2648:2707:3928:4522:2613:1953:2786:3325:661:889:2029:923:1530:2350:3903:1481:1950:2487:3412:4099:2186:526:2241:2311:3323:2245:2382:2395:665:2240:2698:3312:3322:4067:4320:4500:2133:2586:2686:3188:1847:3904:4705:993:2200:1443:1089:2171:2339:2946:3456:3713:3873:1503:2093:2502:2643:2168:4511:5682:846:2010:2776:3216:3230:4738:4798:2193:2604:2650:3722:3836:3871:849:1976:2890:1405:1940:2626:3238:660:3132:4926:1504:1696:2115:3326:946:2994:3737:1711:2179:2346:2432:2284:3444:4737:1857:1946:2032:2600:3229:3351:141:986:1690:1853:3339:5068:1975:2697:3757:4474:4883:1521:1712:1715:3131:4419:4569:2577:3463:3466:3975:4131:433:1071:2387:2408:2718:3211:3959:4130:2100:2602:2884:5441:1111:2030:3144:3201:3585:3945:4208:4497:1557:1704:1716:2152:2390:2812:3952:3955:1485:2151:2202:2434:3963:4896:5442:2158:3135:4618:2518:3210:3245:3379:3390:3556:5569:5572:1116:1849:2117:2391:3342:3385:2327:2670:3341:3867:3891:1952:2166:2622:2655:3133:3464:3668:4326:4583:1686:2362:2668:3355:3362:3402:3953:4448:4512:4885:5367:550:918:949:1799:1973:4498:5096:1008:1415:2112:2396:2504:2509:2664:3435:3442:3729:3822:3960:4396:5060:5073:244:379:643:1045:1512:1792:1829:3892:4446:188:644:659:670:1417:1558:1867:2040:2286:2531:2598:2620:3228:3484:3924:3930:4749:102:844:1411:2195:2293:2325:2601:2804:2908:4203:5436:5444:1856:1932:1944:1949:2025:2424:2581:2704:3140:3231:3802:4294:4327:4557:4804:1091:1544:2134:3433:3727:3763:3901:4005:896:1785:2706:4750:4907:6:719:1674:1728:1954:1979:2028:2217:2318:2407:2537:2723:2887:3214:3338:3497:4514:4699:4785:610:985:1082:1426:1828:1831:2060:2170:2297:2627:2788:3237:3320:3947:4063:4753:5056:5071:658:1277:1480:1789:1994:2007:2011:2810:2852:2925:3383:3555:3563:4065:4584:350:563:827:841:1502:1931:1978:1998:2042:2130:2273:2310:2351:2625:3218:3439:3465:3539:5575:156:561:1926:1983:2137:2932:3373:3436:3483:3881:4652:4951:5115:5517:5653:247:1313:1854:2149:2270:2457:4296:5070:5680:437:664:845:2056:2107:2110:2135:2167:2583:3432:3724:3832:4000:4075:4954:200:374:641:710:1072:1087:1729:2348:2467:2660:2930:3147:3310:3313:4132:4468:4544:4560:4642:4789:5622:388:1454:1802:2330:2400:2429:2641:2738:2886:2944:3181:3382:3559:3692:3756:1068:1142:1149:1252:1624:1672:1735:2132:2312:2495:3057:3115:3561:4057:4101:4927:5061:5190:645:689:1561:1811:1819:1866:1927:2657:2761:2775:3149:3190:3203:3449:3451:3967:4566:5542:5582:348:714:759:770:823:1064:1425:1543:1555:2008:2044:2082:2154:2198:2404:2444:2557:2578:2612:2818:3030:3183:3365:3389:3574:3831:3875:3915:4061:4751:4882:4997:5232:5418:469:668:816:860:950:1170:1275:1407:1680:1748:1808:1887:1921:2109:2192:2403:2605:2696:2749:2771:3179:3204:3256:3311:3314:3335:3548:3551:4556:4759:97:139:751:814:1508:1827:1971:2000:2009:2136:2139:2290:2326:2544:2552:2673:3177:3450:3669:3736:3795:3931:3978:4260:4579:4591:4736:4752:4788:5065:5095:5191:5445:5576:146:238:358:546:828:1433:1445:1761:2006:2150:2528:2624:2662:2690:2947:3002:3130:3854:4073:4164:4483:4499:4937:5516:5524:96:510:1227:1453:1472:1667:1682:1699:1791:1864:2244:2353:2401:2646:2739:2789:2885:2888:3110:3221:3352:3437:3545:3565:3594:3781:3823:3824:4134:4807:4876:5054:5076:5490:5518:149:750:925:1034:1309:1408:1416:1434:1668:1693:1723:1782:1947:1982:2126:2216:2361:2402:2530:2549:2721:2901:3112:3123:3315:3577:3917:4204:4319:4501:4510:5134:5544:5555:143:282:417:1119:1123:1517:1685:1859:1886:1995:2410:2628:2728:2935:3001:3114:3157:3176:3255:3265:3468:3531:3538:3872:3895:4346:4633:4916:5081:5091:5385:5387:5563:211:621:1171:1355:1395:1563:1599:1609:2111:2242:2470:2511:2547:2572:2603:2737:2798:2837:2915:3306:3408:3596:3621:3726:3766:3993:4043:4539:4874:5000:5318:34:511:666:897:957:1086:1117:1118:1141:1278:1468:1539:1695:1870:1923:1928:2004:2113:2157:2162:2589:2665:2720:3258:3353:3367:3550:3741:3896:4064:4277:4877:4938:4956:4971:5083:5321:5:278:419:605:622:843:954:1151:1253:1476:1525:1733:1912:1919:2282:2574:2609:2785:2795:2811:2824:2875:2916:3141:3153:3191:3198:3327:3487:3779:3878:3879:3900:4235:4264:4324:4371:5093:5252:5396:5543:5583:5644:5666:5695:40:72:105:253:260:261:327:347:524:534:545:612:691:733:934:1113:1311:1540:1730:1747:1784:1890:1891:1974:2065:2091:2212:2235:2264:2322:2347:2452:2456:3193:3205:3296:3410:3675:3783:3848:3897:3909:4078:4216:4218:4389:4444:4460:4524:4587:4640:4745:4959:5042:5074:5089:5361:5551:245:311:323:334:512:577:595:740:826:1007:1021:1076:1093:1126:1413:1471:1520:1535:1545:1625:1677:1683:1709:1721:1734:1810:1830:1899:1955:1986:2017:2054:2116:2146:2209:2211:2218:2369:2425:2488:2527:2571:2580:2614:2819:2876:2894:3018:3022:3058:3118:3225:3241:3354:3455:3544:3562:3701:3876:3894:3969:4003:4332:4504:4572:4574:4620:4624:4670:4780:5063:5067:5088:5227:5240:5241:5488:5618:378:390:468:569:663:667:731:951:995:998:1073:1092:1262:1388:1678:1755:1798:1806:1999:2012:2039:2163:2207:2267:2321:2455:2481:2522:2534:2596:2640:2647:2659:2722:3028:3031:3101:3161:3199:3207:3350:3393:3528:3625:3640:3860:3938:4044:4201:4214:4401:4469:4581:4627:4630:4718:4781:4793:4863:4887:4906:5050:5090:5262:5338:5432:5437:5584:5663:7:117:145:239:274:292:302:357:391:408:565:567:570:583:596:611:929:930:1085:1110:1124:1300:1435:1597:1681:1744:1888:1901:1909:1925:2005:2141:2144:2147:2221:2394:2430:2431:2459:2463:2503:2524:2588:2621:2649:2661:2671:2813:3011:3029:3034:3119:3165:3347:3360:3391:3508:3526:3543:3725:3761:3800:3825:3870:3898:4041:4070:4093:4160:4252:4259:4274:4318:4348:4366:4449:4471:4473:4532:4679:4734:4835:4903:4944:5186:5212:5368:5741:3:74:95:189:202:424:486:487:566:629:630:675:822:850:851:921:1096:1114:1115:1135:1172:1220:1236:1256:1344:1399:1632:1713:1725:1777:1800:1807:1915:1922:2002:2037:2080:2081:2092:2094:2099:2125:2183:2259:2266:2289:2298:2428:2499:2539:2653:2777:2815:2817:2850:2854:2895:2909:2936:3052:3071:3109:3113:3148:3174:3189:3316:3317:3343:3361:3395:3417:3481:3499:3583:3587:3710:3711:3935:4007:4034:4053:4056:4161:4196:4202:4230:4373:4424:4480:4533:4562:4635:4658:4676:4685:4824:4840:4890:5114:5117:5199:5208:5256:5304:5351:5399:5496:5500:5684:54:103:205:241:270:275:349:392:472:533:547:584:597:635:704:812:815:881:891:909:940:1017:1069:1125:1223:1260:1329:1458:1474:1478:1604:1669:1679:1697:1736:1759:1776:1832:1833:1871:1913:1936:1988:2003:2169:2219:2233:2300:2306:2334:2435:2461:2519:2532:2562:2636:2644:2755:2816:2917:2942:2950:2952:2971:3026:3139:3168:3194:3291:3318:3500:3542:3597:3603:3618:3644:3647:3690:3696:3712:3716:3759:3760:3773:3943:3962:4027:4176:4188:4215:4271:4298:4338:4666:4672:4673:4741:4800:4902:4905:4917:5120:5122:5125:5236:5243:5248:5259:5303:5306:5344:5366:5446:5493:5495:5556:5567:5577:5619:5623:100:223:266:271:351:368:409:414:541:542:598:604:734:852:855:884:887:919:922:937:983:987:1001:1070:1219:1234:1235:1243:1261:1318:1340:1389:1397:1497:1648:1692:1780:1796:1900:1935:1959:1992:2033:2061:2076:2138:2153:2191:2214:2269:2285:2296:2415:2447:2466:2484:2493:2585:2590:2610:2633:2642:2787:2845:2878:2926:2931:2940:2967:2972:3088:3120:3156:3273:3281:3297:3304:3321:3401:3405:3488:3498:3502:3516:3600:3626:3643:3674:3707:3739:3803:3826:3923:3940:3979:4031:4074:4098:4136:4283:4302:4311:4330:4420:4481:4482:4547:4580:4586:4590:4606:4701:4708:4758:4783:4834:4929:4958:4979:5047:5138:5192:5230:5280:5305:5323:5326:5374:5408:5413:5419:5484:5499:5521:5626:5667:5742:14:20:46:93:134:142:162:168:222:232:259:268:285:329:405:470:485:500:548:572:576:699:857:931:952:956:968:970:996:1054:1150:1299:1342:1347:1409:1418:1457:1459:1464:1465:1505:1515:1524:1585:1591:1592:1719:1726:1731:1783:1903:1911:1980:2048:2055:2068:2084:2142:2205:2223:2237:2247:2278:2358:2411:2416:2462:2494:2510:2516:2551:2560:2570:2575:2691:2719:2790:2825:2828:2838:2844:2846:2848:2877:2907:3004:3008:3027:3039:3051:3121:3122:3158:3169:3244:3407:3415:3416:3453:3473:3558:3593:3645:3676:3743:3835:3861:3866:3884:3977:4030:4032:4079:4172:4173:4190:4198:4233:4242:4300:4313:4317:4335:4395:4470:4476:4493:4536:4537:4538:4545:4576:4619:4671:4682:4694:4722:4757:4784:4790:4812:4854:4862:4901:4913:4914:4983:4990:5049:5187:5188:5291:5382:5407:5453:5509:5514:5566:5585:5625:5632:5642:5664:5677:5694:45:56:71:87:91:106:128:154:161:163:166:187:194:237:495:535:538:559:564:581:582:649:671:706:716:724:725:817:824:829:839:848:938:955:966:971:982:1010:1020:1049:1065:1107:1109:1137:1138:1147:1208:1225:1232:1233:1244:1279:1305:1310:1354:1369:1387:1421:1477:1499:1567:1589:1603:1642:1644:1705:1724:1745:1752:1756:1765:1770:1774:1790:1818:1873:1874:1892:1904:1924:1960:1968:1981:2021:2035:2047:2096:2102:2127:2128:2160:2161:2165:2254:2263:2295:2299:2337:2352:2370:2392:2397:2398:2417:2418:2491:2492:2513:2541:2542:2558:2595:2615:2616:2663:2685:2695:2702:2712:2735:2834:2835:2863:2871:2934:2958:2965:3012:3021:3138:3167:3192:3208:3224:3270:3277:3290:3340:3349:3364:3368:3413:3426:3492:3509:3529:3537:3541:3560:3579:3607:3617:3658:3703:3709:3732:3742:3755:3762:3785:3786:3821:3842:3865:3888:3902:3911:3942:3946:4039:4040:4051:4084:4146:4159:4226:4227:4228:4239:4255:4262:4299:4339:4369:4394:4398:4472:4527:4555:4565:4601:4608:4641:4657:4710:4715:4742:4769:4820:4839:4928:4978:5002:5007:5033:5034:5046:5053:5170:5198:5216:5237:5247:5316:5334:5354:5358:5425:5434:5460:5461:5492:5497:5502:5533:5581:5597:5645:5648:5699:5723:5724:5746:13:73:77:94:104:133:136:148:152:155:167:178:191:208:227:234:246:254:273:289:312:325:335:359:384:387:439:440:460:462:471:474:476:482:573:579:585:647:650:657:679:694:715:717:738:742:743:758:788:813:883:885:928:932:944:945:959:976:989:1077:1080:1098:1144:1181:1230:1238:1245:1259:1264:1280:1298:1312:1330:1351:1382:1383:1392:1437:1451:1491:1549:1562:1596:1605:1608:1634:1646:1651:1661:1673:1714:1718:1720:1722:1737:1766:1775:1778:1797:1809:1813:1815:1902:1918:1967:1996:2015:2041:2123:2176:2210:2227:2231:2253:2256:2320:2331:2332:2333:2343:2355:2439:2440:2443:2460:2468:2480:2496:2506:2523:2526:2561:2569:2667:2674:2747:2748:2773:2822:2833:2847:2849:2903:2905:2914:2929:2933:2937:2954:2969:2981:2997:2998:3013:3053:3094:3104:3129:3150:3186:3219:3243:3251:3252:3262:3271:3283:3298:3305:3344:3392:3403:3406:3425:3522:3523:3532:3540:3576:3591:3592:3602:3604:3609:3648:3654:3679:3695:3708:3774:3780:3782:3784:3806:3809:3907:3914:4019:4037:4038:4082:4083:4086:4105:4128:4135:4151:4157:4179:4191:4193:4234:4241:4253:4258:4272:4292:4295:4297:4329:4357:4362:4385:4408:4418:4427:4431:4494:4496:4523:4564:4609:4611:4614:4615:4625:4644:4650:4654:4661:4663:4691:4711:4743:4771:4806:4815:4827:4884:4889:4991:5020:5023:5027:5044:5097:5098:5123:5140:5150:5161:5196:5201:5223:5233:5253:5288:5292:5302:5345:5388:5406:5431:5440:5452:5457:5459:5466:5489:5595:5600:5633:5660:5669:5670:5719:5725:5726:5729:5748:4:15:35:37:57:64:70:89:101:116:119:137:157:160:172:181:206:226:242:243:262:272:281:301:308:344:375:376:401:403:407:421:428:429:457:458:463:464:473:502:515:525:530:532:551:557:602:616:617:626:628:655:662:686:693:705:708:713:722:726:732:739:746:748:755:772:795:798:807:810:836:840:858:879:899:917:939:941:977:990:1002:1003:1015:1023:1026:1038:1041:1051:1052:1056:1058:1066:1067:1081:1104:1173:1198:1204:1206:1212:1231:1241:1254:1267:1288:1306:1337:1343:1348:1367:1385:1396:1439:1446:1462:1467:1486:1511:1537:1551:1559:1582:1583:1586:1593:1601:1615:1630:1657:1659:1698:1706:1707:1708:1738:1740:1762:1768:1772:1773:1794:1838:1841:1882:1910:1937:1938:1945:2022:2024:2031:2069:2077:2079:2085:2088:2121:2122:2129:2145:2173:2181:2190:2199:2208:2225:2236:2239:2246:2252:2257:2262:2265:2280:2307:2354:2359:2413:2441:2469:2474:2477:2482:2490:2505:2507:2514:2520:2536:2540:2554:2559:2563:2579:2594:2637:2645:2656:2672:2680:2692:2694:2703:2711:2717:2736:2752:2753:2765:2772:2778:2779:2797:2803:2806:2820:2832:2840:2851:2857:2864:2868:2893:2900:2911:2918:2923:2953:2968:2979:2983:2987:2988:3003:3017:3055:3065:3090:3099:3108:3136:3143:3154:3159:3173:3175:3182:3185:3212:3246:3250:3257:3261:3269:3278:3292:3299:3369:3370:3388:3409:3422:3445:3448:3460:3462:3470:3478:3479:3495:3496:3512:3524:3533:3568:3578:3586:3589:3595:3601:3613:3629:3650:3653:3660:3673:3678:3681:3704:3723:3751:3799:3808:3814:3834:3839:3845:3855:3863:3864:3906:3966:3968:3976:3989:4010:4028:4042:4046:4054:4062:4069:4071:4092:4104:4107:4137:4142:4165:4185:4187:4189:4200:4211:4222:4229:4232:4267:4288:4308:4315:4337:4345:4347:4349:4350:4372:4375:4376:4429:4456:4475:4478:4486:4506:4515:4541:4570:4571:4573:4597:4599:4600:4622:4646:4648:4655:4667:4681:4693:4702:4740:4755:4765:4775:4794:4814:4849:4888:4893:4898:4904:4912:4931:4945:4974:4981:4992:4993:5005:5010:5019:5041:5048:5079:5080:5132:5133:5135:5184:5185:5193:5211:5224:5242:5270:5271:5276:5284:5311:5335:5362:5375:5409:5416:5421:5427:5486:5487:5498:5507:5508:5522:5523:5538:5549:5578:5590:5599:5624:5674:5678:5698:5718:5722:5737 -1:1:16:13:11:8:6:3:0:4:10:14:7:18:21:12:5:15:19:2:17:9 -1:8:18:9:3:13:5:10:11:15:12:4:14:7:16:1:6 -1:5:2:3:6:0:4:1
tree_sizes=6597 6720 7014 6780 7815 8261 7658 9014 8224 7956 8880 10346 9277 9601 9279 8975 9123 9125 9733 9345 9429 9597 9819 10295 9658 11351 9855 10279 10379 11227 10208 9685 10795 10731 9575 12391 10294 9737 10413 12303 10831 10904 11461 10776 10764 9416 9925 11679 10723 10335 9738 9907 10834 11376 11297 11024 11288 11242 11573 11536 11958 10747 10766 11769 10303 11670 10702 12143 10256 11828 11590 11668 11506 11905 10524 11923 11381 11643 11681 12084 12000 12199 12288 12210 11976 12601 10662 13134 11496 11576 10500 11965 12552 12723 10332 10889 11368 9626 11518 10866 10879 10555 9651 10470 12140 13041 10925 11897 10791 10966 10481 11269 10883 11404 12217 12173 10455 12228 11314 10718 10936 11799 12186 10464 12314 10477 11652 10497 11358 11759 10864 11366 10838 10267 11724 8545 12044 11277 10969 11410 11598 12124 10029 10969 9615 10893 11835 10915 12216 10218 8783 10808 10847 9723 9852 9599 11188 11794 11331 8654 10910 10674 10134 10348 11237 9653 10808 8087 12669 9818 9933

Tree=0
num_leaves=31
num_cat=9
split_feature=19 16 15 16 6 8 19 13 19 16 13 19 9 6 18 22 16 19 15 16 19 3 19 18 15 6 19 2 13 15
split_gain=20023.4 7944.36 6932.57 2270.76 2077.18 1579.74 1257.47 1153.71 940.938 728.757 853.105 726.433 580.948 564.924 520.145 489.626 484.644 483.353 437.686 384.104 380.133 376.89 371.005 363.912 409.039 707.077 406.736 342.825 335.677 468.881
threshold=0 15.895833333333334 30.500000000000004 5.5625000000000009 3.5000000000000004 1.6250000000000002 1 3.5000000000000004 2 25.854166666666668 30.500000000000004 3 4.1458333333333348 2.1666666666666674 5.5000000000000009 4 9.3541666666666696 5 103.50000000000001 7.0625000000000009 6 1.5000000000000002 7 5.5000000000000009 230.50000000000003 4.5000000000000009 8 3.5000000000000004 44.500000000000007 174.50000000000003
decision_type=9 2 2 2 2 2 9 2 9 2 2 9 2 2 2 1 2 9 2 2 9 2 9 2 2 2 9 2 2 2
left_child=1 3 7 13 11 -3 19 17 16 21 -11 -4 23 -1 15 -15 -9 -2 -12 -6 -21 27 -10 26 -25 -26 -5 -7 29 -20
right_child=2 5 4 12 6 9 -8 8 22 10 18 -13 -14 14 -16 -17 -18 -19 28 20 -22 -23 -24 24 25 -27 -28 -29 -30 -31
leaf_value=-0.21104466448616466 -0.22795298152043192 0.22870097150584512 -0.21975137964597674 -0.17101909903261009 -0.19152103111981864 -0.10750372948971071 -0.22120695189128775 -0.20426434482220096 -0.21693699231556798 0.24834972688419693 -0.1151523638751249 -0.24089923913119876 0.051715841685035346 -0.19669236500406373 -0.20475176291675481 -0.12171372954084618 -0.077554658935744147 -0.26183106663360095 0.11864485804164332 -0.11269407722248992 -0.17833080049017086 0.065036745914912486 -0.25055795860968677 -0.18276100794455968 0.12094969795471799 -0.19659965225121684 -0.098426889125900807 0.03643889297221109 0.13312592593670869 -0.1216440201834916
leaf_weight=3598.7508738040924 1068.1079971790314 63.108301162719727 5490.4222011566162 369.1835618019104 1254.2774856090546 328.16316604614258 3316.3412261009216 579.01866316795349 856.69518828392029 39.442688226699829 63.108301162719727 15553.040821552277 41.020395755767822 424.40332531929016 900.8709990978241 563.24158787727356 86.773914098739624 56691.764642000198 34.70956563949585 419.67020273208618 650.01550197601318 44.175810813903809 15540.419161319733 567.97471046447754 31.554150581359863 39.442688226699829 717.85692572593689 47.331225872039795 59.95288610458374 48.908933401107788
leaf_count=2281 677 40 3480 234 795 208 2102 367 543 25 40 9858 26 269 571 357 55 35933 22 266 412 28 9850 360 20 25 455 30 38 31
internal_value=-0.244027 -0.167833 -0.250026 -0.183548 -0.228146 -0.010385 -0.2012 -0.25783 -0.246407 -0.0330472 0.0352606 -0.235369 -0.134252 -0.199423 -0.177277 -0.152215 -0.188583 -0.261205 -0.00540525 -0.173054 -0.150738 -0.0731074 -0.248786 -0.138672 -0.168617 -0.0554666 -0.12107 -0.0893597 0.0428352 -0.0219015
internal_weight=109490 7983.2 101507 7254.3 26683.8 728.901 5640.3 74822.8 17062.9 665.793 246.122 21043.5 1767.03 5487.27 1888.52 987.645 665.793 57759.9 206.68 2323.96 1069.69 419.67 16397.1 1726.01 638.972 70.9968 1087.04 375.494 143.571 83.6185
internal_count=69398 5060 64338 4598 16913 462 3575 47425 10815 422 156 13338 1120 3478 1197 626 422 36610 131 1473 678 266 10393 1094 405 45 689 238 91 53
cat_boundaries=0 159 335 498 672 673 847 1023 1199 1300
cat_threshold=0 0 0 0 0 0 0 0 0 0 0 0 0 0 0 0 0 0 0 0 0 0 0 0 0 0 0 0 0 0 0 0 0 0 0 0 0 0 0 671088640 0 0 0 0 0 0 0 0 0 0 0 0 0 0 0 0 0 0 0 0 1572864 0 0 0 0 0 0 0 0 0 0 1 1024 0 192 0 0 0 0 0 16777216 81920 0 0 0 0 0 36 0 0 0 0 0 0 4194304 0 0 0 0 0 146800640 0 0 0 0 4505604 0 0 0 0 0 0 0 0 0 0 0 1048576 0 0 1073741824 2 0 0 0 0 0 0 0 4 0 0 0 0 0 4096 0 0 0 0 0 0 0 0 0 0 0 0 0 0 0 0 0 0 0 0 0 262144 603979776 0 0 0 0 0 0 0 0 0 0 0 0 0 0 0 0 0 0 0 0 0 0 0 0 0 0 0 0 0 0 0 0 0 0 0 0 0 0 0 0 0 0 0 0 0 0 0 0 0 0 0 0 134217728 0 0 0 0 2415919136 0 0 0 0 0 0 0 1048576 0 0 268435458 0 0 537395208 512 8224 568 0 0 4194304 64 0 4194304 32768 0 0 1073741824 0 0 1 0 0 0 0 0 0 0 0 0 0 0 0 0 0 0 0 0 0 0 0 0 0 0 0 0 0 0 0 65536 0 0 0 0 0 262144 0 0 0 0 0 2 0 0 0 0 0 0 0 0 0 0 0 0 268435456 16 0 0 0 0 0 0 0 0 0 0 16 0 0 0 0 0 0 0 0 0 0 0 0 0 0 0 0 16 0 0 0 0 131072 0 0 0 0 0 0 0 0 0 0 0 0 0 0 0 0 0 0 0 0 1048576 0 32768 0 0 0 0 0 0 0 0 0 0 0 0 0 0 0 0 0 0 0 0 0 0 0 0 16 0 0 0 0 0 0 0 0 0 0 1024 0 67108864 0 0 16777216 0 0 0 4195328 0 0 2147483648 0 0 32 0 0 0 0 64 0 8388608 2097152 0 0 2048 0 0 0 0 0 0 0 0 0 0 0 0 0 0 1048576 1073741824 0 0 0 0 3145728 0 0 128 0 0 0 0 0 0 0 0 8192 4194304 0 0 0 1 0 0 0 0 0 0 0 0 2048 0 0 0 0 0 0 0 0 0 0 16 128 0 0 0 0 0 0 0 0 0 0 0 0 0 0 0 0 0 0 64 0 0 0 0 0 0 0 0 0 0 0 0 0 0 0 0 0 0 0 0 0 0 0 0 0 0 0 0 0 0 0 4 0 0 0 0 0 0 0 0 0 0 0 0 0 0 0 0 0 0 0 0 134217728 128 0 0 0 2147483680 0 0 2147483648 0 0 0 0 0 0 1073741824 0 0 0 536870912 1052672 32 74256 0 0 0 0 0 4194304 0 16777216 0 0 0 0 1 0 0 0 0 0 0 0 0 0 0 64 1572864 1 0 0 0 0 9437184 0 0 0 0 0 0 0 0 0 0 65536 0 0 0 0 0 0 0 0 0 0 0 10 0 0 0 0 0 0 0 0 0 0 0 0 268435456 16 0 0 0 0 0 0 0 0 0 0 16 0 0 0 0 2147483648 0 0 0 0 0 0 0 0 0 0 0 0 0 0 262144 52 0 0 0 0 0 0 0 0 0 0 0 0 0 0 0 0 0 0 0 0 33554440 0 0 0 0 0 0 0 0 0 0 0 0 2147483648 0 0 0 0 0 0 268435456 0 0 0 0 0 0 0 0 0 0 0 0 0 0 0 0 128 4 0 0 0 0 0 0 0 0 128 256 0 0 524288 0 0 2105344 0 0 0 0 0 4194304 8192 0 0 0 64 0 0 0 0 0 2147483648 0 0 0 0 0 0 0 1073745920 0 0 0 1024 0 2097152 0 67141632 0 0 0 0 0 0 0 0 65536 0 0 0 0 536870912 0 0 0 0 0 0 32 0 0 0 0 0 0 0 0 0 0 0 0 128 1 0 0 0 0 0 0 131072 0 0 0 0 0 0 0 0 0 0 0 0 0 0 0 0 256 0 0 268435456 4 0 0 524288 0 0 0 0 0 0 0 0 0 0 0 0 0 0 0 0 0 0 0 0 0 0 0 0 0 0 0 0 0 0 0 0 0 0 0 0 0 0 0 0 0 0 0 0 0 0 0 0 0 0 0 0 0 0 0 0 0 2147483648 0 0 0 0 0 0 0 0 0 0 0 0 0 524296 0 8192 48 0 0 0 0 0 4194304 0 0 0 0 0 0 0 0 0 0 0 0 0 0 0 0 0 0 0 0 0 0 0 0 0 0 0 0 0 0 0 0 0 0 0 65536 0 0 0 0 0 262144 0 0 0 0 0 0 0 0 0 0 0 0 0 0 0 0 0 0 0 0 0 0 0 0 0 0 0 0 0 0 0 0 0 0 0 0 0 0 0 0 0 0 0 0 0 0 0 0 0 0 0 0 131072 0 0 0 0 8192 0 0 536870912 0 0 0 0 0 0 0 0 0 0 0 0 0 0 0 0 0 0 0 0 0 2097152 67108864 4 0 0 0 0 0 0 0 131072 0 0 0 536870912 0 0 0 0 17039360 0 0 0 134217728 32 0 0 0 0 0 0 536870912 0 0 0 0 0 0 0 256 0 0 8 1053184 1024 0 0 0 0 0 0 0 0 0 0 0 0 0 16 0 0 0 0 0 0 0 0 0 0 0 4194304 65536 0 0 0 134217728 0 0 0 0 0 0 0 0 0 0 0 0 0 0 0 2147483648 2684354560 0 0 0 0 0 0 0 0 0 4096 0 0 0 1 0 0 0 0 0 0 0 0 0 0 0 0 1024 0 0 0 0 0 0 0 0 0 0 0 0 0 0 0 0 0 0 0 0 0 0 0 0 0 16384 131072 0 0 0 0 0 0 0 0 0 0 0 0 0 0 0 0 0 0 0 0 0 0 0 0 0 0 0 0 0 0 0 0 0 0 0 0 0 0 0 0 0 0 0 0 0 0 0 0 0 0 0 0 0 0 0 0 0 0 0 0 1572864 0 0 0 0 0 0 0 0 0 0 1 1024 0 0 0 0 0 0 0 16777216 16384 0 0 0 0 0 0 0 0 0 0 0 0 0 0 0 0 0 0 142606336
is_linear=0
shrinkage=1


Tree=1
num_leaves=31
num_cat=9
split_feature=19 15 16 6 19 13 19 6 19 16 7 16 19 19 15 15 16 15 16 18 18 22 15 6 18 19 19 16 18 15
split_gain=17799.3 6609.55 5509.36 1850.95 1159.56 1102.73 1101.92 1025.68 860 825.583 1370.64 590.592 563.589 450.094 449.439 434.068 403.273 396.907 349.44 348.254 726.331 501.21 440.124 329.253 315.423 305.093 303.473 303.445 330.574 364.377
threshold=0 30.500000000000004 9.5625000000000018 2.8333333333333335 1 3.5000000000000004 2 2.1666666666666674 3 15.895833333333334 3.2500000000000004 25.166666666666668 4 5 151.50000000000003 27.500000000000004 9.1041666666666696 354.00000000000006 3.8541666666666674 5.5000000000000009 20.500000000000004 6 230.50000000000003 14.833333333333334 1.0000000180025095e-35 7 8 18.937500000000004 6.5000000000000009 89.500000000000014
decision_type=9 2 2 2 9 2 9 2 9 2 2 2 9 9 2 2 2 2 2 2 2 1 2 2 2 9 9 2 2 2
left_child=2 5 7 12 16 13 9 -1 -7 -4 -11 -12 -3 -2 -13 -8 -5 19 -19 21 -21 24 -22 26 -9 -10 -6 -17 29 -29
right_child=1 3 6 4 23 8 15 17 25 10 11 14 -14 -15 -16 27 -18 18 -20 20 22 -23 -24 -25 -26 -27 -28 28 -30 -31
leaf_value=0.030946036665293872 0.017397114073171047 0.020535731118176293 0.14142972817774399 0.048125191752725636 0.035680031911508113 0.045757328160650278 0.24348163661659711 0.013679873832183269 0.022950457427847796 0.52116674840069066 0.14719576055476055 0.19699502086331711 0.001581576161089586 -0.017622446221931255 0.36347033194431572 0.086930007870562154 0.087800680389187133 0.094598687597287567 0.28784252797398951 0.022766265763782614 0.083409475773809583 0.054061236815487891 0.23909243762443261 0.133089278432137 0.12309258543101793 -0.0068246376600741123 0.0088671132114116879 0.27080389187415665 0.073116404749505245 0.13853354875890039
leaf_weight=3839.5130308866501 927.76197671890259 5454.5281262397766 299.83340334892273 2125.2985147237778 1651.6998775005341 864.7878270149231 61.309473395347595 72.710015058517456 902.48524975776672 42.308001399040222 152.01276743412018 77.313445806503296 13916.034999132156 55825.764986395836 85.243456482887268 698.82344245910645 916.71889805793762 61.543380737304688 37.739253044128418 913.9513533115387 328.90256643295288 903.26953506469727 52.667135834693909 63.640403985977173 700.36981666088104 15227.654441595078 2954.6595549583435 69.680952668190002 122.00641524791718 205.98323023319244
leaf_count=2353 580 3384 170 1291 1016 521 33 41 561 17 81 36 8789 36015 39 385 535 37 20 551 199 526 29 39 391 9715 1839 38 63 104
internal_value=-1.50641e-05 -0.0059461 0.0684542 0.015178 0.0358941 -0.0137043 0.14607 0.0481738 -0.00253144 0.199553 0.253978 0.218042 0.00693027 -0.01705 0.284293 0.113035 0.0598846 0.0697118 0.168054 0.0664264 0.0469565 0.0814732 0.104898 0.0200956 0.111362 -0.00514553 0.0185781 0.106772 0.14164 0.171968
internal_weight=109556 100831 8725.18 27082.6 7712.02 73748.5 1814.51 6910.67 16994.9 656.711 356.878 314.57 19370.6 56753.5 162.557 1157.8 3042.02 3071.15 99.2826 2971.87 1295.52 1676.35 381.57 4670 773.08 16130.1 4606.36 1096.49 397.671 275.664
internal_count=69398 64285 5113 16893 4720 47392 966 4147 10797 343 173 156 12173 36595 75 623 1826 1794 57 1737 779 958 228 2894 432 10276 2855 590 205 142
cat_boundaries=0 159 335 457 632 806 981 982 1158 1317
cat_threshold=0 0 0 0 0 0 0 0 0 0 0 0 0 0 0 0 0 0 0 0 0 0 0 0 0 0 0 0 0 0 0 0 0 0 0 0 0 0 0 671088640 0 0 0 0 0 0 0 0 0 0 0 0 0 0 0 0 0 0 0 0 1572864 0 0 0 0 0 0 262144 0 0 0 1 1024 0 192 0 0 0 0 0 16777216 81920 0 0 0 0 0 36 0 0 0 0 0 0 4194304 0 0 0 0 0 146800640 0 0 0 0 4505604 0 0 0 0 0 0 0 0 0 0 0 1048576 0 0 1073741824 2 0 0 0 0 0 0 0 4 0 2048 0 0 0 4096 0 0 0 0 0 0 0 0 0 0 0 0 0 0 0 0 0 0 0 0 0 262144 603979776 0 0 0 0 0 0 0 0 0 0 0 0 0 0 0 0 0 0 0 0 0 0 0 0 0 0 0 0 0 0 0 0 0 0 0 0 0 0 0 0 0 0 0 0 0 0 0 0 0 0 0 0 0 0 0 0 0 2147483680 0 0 0 0 0 0 0 1048576 0 0 268435456 0 0 537395208 512 8224 33328 0 0 4194304 0 0 4194304 32768 0 0 1073742848 64 0 1 0 0 0 0 4 0 0 0 0 0 0 0 1 0 0 0 0 1048576 0 0 0 0 0 0 0 0 0 0 0 0 0 0 0 0 262144 0 0 0 0 0 2 0 0 0 0 0 0 0 0 0 0 0 0 268435456 16 0 0 0 0 0 0 0 0 0 0 16 0 0 0 0 0 0 0 0 0 0 0 0 256 0 0 0 16 0 0 0 0 131072 0 0 0 0 0 0 0 0 0 0 0 0 0 0 0 0 0 0 0 0 0 0 0 0 0 0 0 0 0 0 0 0 0 0 0 0 0 0 0 0 0 0 0 0 0 0 0 0 0 0 0 0 0 0 0 0 0 0 0 0 1048576 0 0 0 0 0 0 0 0 0 0 0 0 0 0 0 0 0 0 0 0 81920 0 0 0 0 0 0 0 0 0 0 0 0 0 0 0 0 0 0 142606336 0 0 0 0 294912 0 0 0 0 0 0 0 0 0 0 0 1048576 0 0 0 2 0 0 0 0 8192 0 0 536870912 0 0 0 0 0 0 0 0 0 0 0 0 1048576 0 32768 0 0 0 0 0 0 0 0 0 0 0 0 0 0 0 0 0 0 0 0 0 0 0 0 16 0 0 0 0 0 32 0 0 0 0 1024 0 67108864 0 0 16777216 0 0 0 4195328 256 0 2147483648 8 512 32 0 0 0 0 64 0 8388608 2097152 0 0 2048 0 0 0 0 0 0 0 0 0 0 0 0 0 0 1048576 1073741824 0 0 0 0 3145728 0 0 128 0 0 0 0 0 0 0 0 8192 4194304 0 0 0 1 0 0 0 0 0 0 0 0 0 0 0 0 0 0 0 0 0 0 0 16 128 0 0 0 0 0 0 0 0 0 0 0 0 0 0 0 0 0 0 64 0 0 0 0 0 0 0 0 0 0 0 16384 0 0 0 0 0 0 0 0 0 0 0 0 0 0 0 0 0 0 0 0 0 0 0 0 0 0 0 0 0 0 0 4 0 0 0 0 0 0 0 0 0 0 0 536870912 0 0 0 0 0 0 0 0 134217728 128 0 0 0 2147483648 0 0 2147483648 0 0 0 0 0 0 1073741824 0 0 1 536870912 4096 0 76304 0 0 0 0 0 4194304 0 16777216 0 0 0 65536 1 0 0 0 0 0 0 0 0 0 0 64 524288 1 0 0 0 0 1048576 0 0 0 0 0 1073741824 0 0 0 0 65536 0 2097152 0 0 0 0 0 0 0 0 0 2 0 0 0 0 0 0 0 0 0 0 0 0 268435456 16 0 0 0 0 0 0 0 0 0 0 16 0 0 0 0 2147483648 0 0 0 0 0 0 0 0 0 0 0 0 0 0 262144 0 0 0 0 0 0 0 0 0 0 0 0 0 0 0 0 0 0 0 0 33554432 0 0 0 0 0 0 0 0 0 0 0 0 2147483648 0 0 0 0 0 0 268435456 0 0 0 0 0 0 0 0 0 0 0 0 0 0 0 0 128 4 0 0 0 0 0 0 0 0 128 256 0 0 524288 0 0 8192 0 0 0 0 0 4194304 8192 0 0 0 64 0 0 0 0 0 2147483648 0 0 0 0 0 0 0 1073741824 0 0 0 1024 0 2097152 0 67141632 0 0 0 0 0 0 0 0 65536 0 0 0 0 536870912 0 0 0 0 0 0 0 0 0 0 0 0 0 0 0 0 0 0 0 0 1 0 0 0 0 0 0 131072 0 0 0 0 0 0 0 0 0 0 0 0 0 0 0 0 256 0 0 268435456 4 0 0 524288 4 11 0 0 0 0 0 0 0 0 0 0 0 0 0 0 0 0 0 0 0 0 0 0 0 0 0 0 0 0 0 3145728 67108864 4 0 0 0 0 0 0 0 131072 0 0 0 536870912 0 0 0 0 17039360 0 0 0 134217728 0 0 0 0 0 0 0 536870912 0 0 16384 0 0 0 0 0 0 0 0 1052672 1024 0 0 0 0 0 0 0 0 0 0 0 128 0 16 0 0 0 0 4 0 0 0 0 0 0 4194304 65536 0 0 0 134217728 0 0 0 0 0 0 0 0 0 524288 0 0 0 0 0 2147483648 2684354560 0 0 0 0 0 0 0 0 0 4096 0 0 0 1 0 0 0 0 0 0 0 0 0 0 0 0 1024 0 0 0 0 0 0 0 0 0 0 0 0 0 0 0 0 0 0 0 0 0 0 0 0 268435456 0 131072 0 0 0 0 0 0 0 0 0 0 0 0 0 0 0 0 0 0 0 0 0 0 0 0 0 0 0 0 0 0 0 6 0 0 0 0 0 0 0 0 0 0 0 0 0 0 0 0 0 0 0 0 134217728 32 0 0 0 268435456 0 0 2214592512 0 0 0 0 0 0 1073741824 2 0 0 32 4096 0 2100232 0 0 0 64 0 0 0 0 0 0 128 0 0 0 0 0 0 0 0 0 0 0 0 0 1576960 536870912 0 0 0 0 131072 0 0 0 0 0 0 0 0 524288 0 65536 0 6291456 0 0 0 0 0 0 0 0 0 0 0 0 0 0 0 0 0 0 0 0 0 0 256 0 0 0 0 0 0 0 0 0 0 0 0 0 0 0 0 2147483648
is_linear=0
shrinkage=0.05


Tree=2
num_leaves=31
num_cat=10
split_feature=9 19 16 15 19 19 16 19 19 13 8 17 19 16 18 16 7 16 8 13 18 19 18 19 16 19 16 17 22 16
split_gain=16062.2 6443.56 2909.81 2351.96 1121.73 979.308 938.709 815.699 673.186 503.335 499.234 546.644 484.176 467.795 456.326 412.294 400.24 376.56 367.339 1366.43 387.509 355.062 339.261 315.397 312.783 301.981 288.855 288.255 254.928 243.995
threshold=0.47916666666666669 0 16.104166666666668 25.500000000000004 1 2 3.5625000000000004 3 4 2.5000000000000004 1.6250000000000002 1.0000000180025095e-35 5 7.3541666666666679 5.5000000000000009 3.0625000000000004 9.2500000000000018 3.6875000000000004 1.0416666666666667 18.500000000000004 5.5000000000000009 6 5.5000000000000009 7 2.7708333333333339 8 23.979166666666668 1.0000000180025095e-35 9 8.8541666666666696
decision_type=2 9 2 2 9 9 2 9 9 2 2 2 9 2 2 2 2 2 2 2 2 9 2 9 2 9 2 2 1 2
left_child=3 2 6 5 13 17 14 24 -4 -7 -10 -12 15 22 23 -6 -15 -1 19 -8 25 -11 -3 -2 -5 29 -13 -19 -25 -20
right_child=1 4 8 7 12 9 18 -9 10 21 11 26 -14 16 -16 -17 -18 27 20 -21 -22 -23 -24 28 -26 -27 -28 -29 -30 -31
leaf_value=0.019504919046748073 0.026986266555762646 0.045957498051974688 0.079085031526659119 0.018085886748551206 0.01251670103200086 -0.018332912314651274 0.092162684120848506 0.00056012466765113301 0.28226046228621421 0.026856725744662094 0.13591588182207778 0.16882708236549965 0.0063718744342096461 0.060534536990904199 0.024664366533200852 0.048281105604082566 0.21307047012554847 0.062485836452160118 0.083784026484724397 0.32573226806435268 0.045366697488214973 -0.010024891659408848 0.01588343114650757 0.1291447960285069 0.051882587611500178 0.059699859242723113 0.29466666112284351 0.19670790081549722 0.064121496842852496 0.14349152617801675
leaf_weight=642.84481000900269 501.39670979976654 1864.7554211616516 292.15565860271454 2276.5852029323578 1781.9863111972809 46095.100987911224 536.78907012939453 14854.409878492355 104.69252920150757 667.13305795192719 467.82127785682678 83.395149230957031 9906.2498639822006 1234.7153842449188 1497.1622898578644 1471.0635335445404 44.556585788726807 158.62089693546295 316.2596343755722 70.886270999908447 707.30563461780548 18872.819366931915 1886.3894428014755 204.63545417785645 978.98821687698364 538.90302968025208 100.62726092338562 53.489896416664124 1031.0061722993851 372.80004894733429
leaf_count=404 290 1111 130 1369 1096 30238 289 9342 31 416 200 39 6186 679 884 871 23 95 164 36 388 12179 1130 109 576 282 38 31 588 184
internal_value=-2.84938e-05 0.0351694 0.0765626 -0.0104362 0.0195834 -0.0147872 0.0627659 0.00553796 0.153297 -0.0154798 0.178551 0.164633 0.0118848 0.0396591 0.0448943 0.0286018 0.0658473 0.03812 0.0854956 0.119409 0.0748468 -0.00875707 0.0308337 0.0623306 0.0281624 0.0918274 0.237639 0.0963338 0.0758404 0.114427
internal_weight=109616 25015.6 6825.84 84600 18189.7 66490 5777.14 18110 1048.69 65635.1 756.536 651.844 13159.3 5030.42 3234.2 3253.05 1279.27 854.956 2542.94 607.675 1935.27 19540 3751.14 1737.04 3255.57 1227.96 184.022 212.111 1235.64 689.06
internal_count=69398 14748 3652 54650 11096 43363 3214 11287 438 42833 308 277 8153 2943 1871 1967 702 530 1343 325 1018 12595 2241 987 1945 630 77 126 697 348
cat_boundaries=0 159 330 506 665 824 1000 1175 1334 1493 1494
cat_threshold=0 0 0 0 8192 0 0 0 0 0 0 0 0 0 0 0 0 0 0 0 0 0 32768 0 0 0 0 0 0 0 0 0 0 0 0 0 0 0 0 0 0 0 0 0 0 0 0 0 0 0 0 0 0 0 0 0 0 0 0 0 1572864 0 0 0 0 0 0 0 0 0 0 524289 1024 32 128 0 0 0 0 0 20971520 2179072 0 0 0 0 0 36 0 0 0 0 0 0 4194304 0 0 0 0 0 1220542464 0 0 0 0 4505600 0 0 0 0 0 0 0 0 0 0 0 1048576 0 0 0 2 0 0 0 0 0 0 0 4 0 0 0 0 0 0 0 0 0 0 0 0 0 0 0 0 0 0 0 0 0 0 0 0 0 0 0 262144 603979776 0 0 0 0 0 0 0 0 0 0 0 0 0 0 0 0 0 0 0 0 0 0 0 0 0 0 0 0 0 0 0 4 0 0 0 0 0 0 0 671088640 0 0 0 0 0 0 0 0 0 0 0 0 134217728 0 0 0 0 2147483648 0 0 2147483648 0 0 0 0 0 0 0 268435456 0 0 1073741832 1048576 0 592 0 0 4194304 0 0 0 0 0 0 1073741824 128 0 0 0 0 0 0 0 0 0 0 0 0 0 0 1 0 0 16777216 0 1048580 0 0 0 0 0 1073741824 0 0 0 0 65536 0 0 0 0 0 0 0 0 0 0 0 2 0 0 2048 0 0 0 0 0 0 0 0 0 268435456 16 0 0 0 0 0 0 0 0 0 0 16 0 0 0 0 2147483648 0 0 0 0 0 0 0 256 0 0 0 16 0 0 0 0 0 0 0 16384 0 8388608 0 0 0 0 0 0 0 0 0 0 0 0 0 0 0 0 0 0 0 0 0 0 0 0 0 0 0 0 0 0 0 0 0 0 0 0 0 16 0 0 0 0 0 0 0 0 0 2147483648 0 0 268435456 0 0 0 0 0 0 4194304 256 0 0 524288 4096 0 0 0 0 0 4194368 0 0 65536 0 0 0 64 0 16 0 0 0 0 0 0 0 0 0 0 0 0 65536 0 0 0 0 6291460 0 0 0 0 0 0 0 0 524288 0 65536 0 0 0 1073741824 536870978 0 0 0 0 0 64 0 0 0 2048 0 0 0 0 0 0 0 0 0 0 0 128 0 0 0 0 0 0 0 0 0 0 0 0 0 0 67108864 0 0 0 0 0 0 0 0 0 0 0 0 0 0 0 0 131072 0 0 0 0 0 0 0 0 0 0 0 0 0 0 0 0 0 0 0 0 0 0 0 0 0 0 0 0 0 0 0 0 0 0 0 0 0 0 0 0 0 0 0 0 0 0 0 0 0 0 0 0 134217728 0 0 0 0 2147483680 0 0 1048576 0 0 0 0 0 0 0 0 0 0 524289 1024 0 68288 0 0 0 0 0 16777216 65536 0 0 0 0 0 5 0 0 0 0 4 0 0 0 0 0 0 1572864 146800640 0 0 0 0 1359872 0 0 0 0 0 0 0 0 0 0 0 0 0 0 0 0 0 0 0 0 0 0 0 0 0 0 0 0 0 0 0 0 0 0 0 128 16 0 0 0 0 0 0 0 0 0 0 16 0 0 0 0 2684354560 0 0 0 0 0 0 0 0 0 0 0 0 0 0 0 0 0 0 0 0 0 0 0 0 0 0 0 0 0 0 0 0 0 0 0 0 0 0 0 0 0 0 0 0 0 0 0 0 0 0 0 0 0 0 0 0 0 0 0 0 0 0 0 0 0 0 0 0 0 0 0 1 1024 0 0 0 0 0 0 0 16777216 0 0 0 0 0 0 4 0 0 0 0 0 0 0 0 0 0 0 0 4194304 0 0 0 0 16384 0 0 0 0 0 0 0 0 0 0 0 0 0 0 0 0 0 0 0 0 0 0 0 0 0 0 0 0 0 0 0 0 0 0 0 0 0 0 0 0 0 0 0 0 0 0 0 0 0 0 0 0 67108864 0 0 0 0 0 0 0 0 0 0 0 0 0 0 0 0 0 0 0 0 0 0 0 0 0 0 0 0 0 2097152 0 0 0 0 0 0 0 0 0 131072 268435456 0 0 0 0 0 0 0 0 0 0 0 0 128 0 0 0 276824096 0 0 335544320 0 0 0 0 1048576 0 0 2 0 0 536870912 512 9216 40992 0 4 0 64 0 0 32768 16777216 0 0 0 0 17 0 0 0 2147483648 0 0 0 0 0 0 0 524288 0 0 0 65536 0 0 0 0 0 0 0 0 0 0 0 0 0 2097152 6291456 0 0 0 1 0 0 0 0 0 0 0 0 0 0 0 0 0 0 0 0 0 0 0 0 0 0 0 0 0 0 0 0 0 0 0 0 0 0 0 0 0 0 0 0 0 0 0 0 0 0 0 0 0 0 0 0 131072 0 0 0 0 0 0 0 0 0 0 0 0 0 0 0 0 0 0 0 0 0 0 0 0 0 0 0 0 0 0 67108864 0 0 0 0 0 0 0 0 0 0 0 0 536870912 0 0 0 0 16777216 0 0 0 0 0 0 0 0 33554432 0 0 603979776 2097152 0 0 0 0 0 1073741952 0 0 2147483648 0 513 1056 2105344 0 0 0 0 0 0 0 0 0 2048 0 0 0 0 0 0 2147483648 4 0 0 0 0 0 0 5242880 1073741824 64 0 0 0 0 0 32768 0 0 0 0 0 0 0 0 0 8192 0 0 0 0 0 0 0 0 0 0 0 0 0 65536 0 0 0 0 0 0 0 0 0 0 0 0 0 0 0 0 0 0 0 0 0 0 0 0 0 0 0 0 0 0 0 0 0 0 0 0 0 0 0 0 0 0 16384 0 0 0 0 0 0 0 0 0 0 0 0 0 0 0 0 0 0 0 0 0 0 0 0 0 0 0 0 0 0 0 0 0 0 0 0 0 0 0 0 0 0 0 0 0 0 0 0 0 0 0 0 0 0 0 0 0 0 0 0 524288 0 0 0 0 0 0 0 0 0 0 524288 0 0 128 0 0 0 0 0 4194304 65536 0 0 0 0 0 0 0 0 0 0 0 0 0 0 0 0 0 0 12582912 0 0 0 0 0 0 0 0 0 0 0 0 0 0 0 0 0 0 0 0 0 0 0 0 0 0 0 0 0 0 0 0 0 0 0 0 0 0 0 0 0 0 0 0 0 0 0 0 0 0 0 0 0 0 0 0 0 67108864 0 0 0 0 0 0 0 0 0 0 0 0 0 0 0 0 0 0 0 0 0 0 0 0 0 0 0 0 0 0 0 0 0 0 0 0 0 0 0 0 0 0 0 0 0 0 0 0 0 0 0 0 0 0 0 0 0 0 0 0 0 0 0 0 0 0 0 0 0 0 0 524288 1024 0 0 0 0 0 0 0 4194304 65536 0 0 0 0 0 0 0 0 0 0 0 0 0 0 0 0 0 0 0 0 0 0 0 311296 0 0 0 0 0 0 0 0 0 0 0 1048576 0 0 0 0 0 0 0 0 0 0 0 0 0 0 0 0 0 0 0 0 0 0 0 0 0 0 0 0 0 0 0 0 0 0 0 0 0 0 0 0 603979776 8
is_linear=0
shrinkage=0.05


Tree=3
num_leaves=31
num_cat=9
split_feature=9 19 15 16 19 19 19 16 6 18 13 16 7 22 19 19 16 16 8 19 6 15 16 9 6 19 13 8 7 15
split_gain=14871.6 5353.05 2281.46 2177.05 1042.69 930.433 753.509 644.506 709.442 599.384 496.711 439.516 415.703 408.854 397.343 384.457 343.758 338.12 312.516 290.147 310.192 280.767 278.478 256.546 563.952 247.699 241.036 509.971 235.853 275.156
threshold=0.47916666666666669 0 25.500000000000004 6.1041666666666679 1 2 3 16.104166666666668 5.8333333333333348 5.5000000000000009 2.5000000000000004 2.0208333333333339 1.0833333333333337 4 5 6 25.166666666666668 3.1458333333333339 0.62500000000000011 7 2.8333333333333335 55.500000000000007 3.6875000000000004 2.3958333333333335 4.5000000000000009 8 22.500000000000004 3.5416666666666674 12.91666666666667 165.50000000000003
decision_type=2 9 2 2 9 9 9 2 2 2 2 2 2 1 9 9 2 2 2 9 2 2 2 2 2 9 2 2 2 2
left_child=2 3 5 9 11 12 22 23 -9 19 25 -3 -1 16 17 -12 -10 -6 -14 20 21 -2 -4 -5 -25 -7 -22 -28 29 -15
right_child=1 4 6 7 14 10 -8 8 13 -11 15 -13 18 28 -16 -17 -18 -19 -20 -21 26 -23 -24 24 -26 -27 27 -29 -30 -31
leaf_value=0.020260588470558828 0.18774383547930018 0.019837477140469035 0.018720215437546255 0.074314233351421552 0.010919704718851016 0.0089611967470744867 0.00055172883863582986 0.3043722806157701 0.13364419784987891 0.024830660347823295 0.024435717215655985 0.048484230345929726 0.21316437591885851 0.080559887175728304 0.0057408795828935407 -0.01012871504363737 0.23131798253868729 0.0429965264122147 0.062621435449834659 0.040718962160553339 0.090528717813302517 0.050524237778704031 0.052435722168762612 0.25254669444042183 0.088959836217035085 -0.018704754421253907 0.2935162119920291 0.075411494717134431 0.0079606459541666803 0.14402942776503233
leaf_weight=720.78299975395203 39.280605316162109 2255.5932009220123 2515.5294437408447 1598.1885154247284 1758.092582821846 823.02480065822601 14886.906418561935 54.981515884399414 242.62737345695496 1897.9086331129074 832.3486715555191 3294.7549287080765 49.791247010231018 444.06847178936005 9675.8649808168411 18536.8088991642 143.27696430683136 1542.1862086057663 112.06313967704773 1005.2569386959076 480.67761194705963 731.22015845775604 809.55167436599731 66.876740574836731 248.26630866527557 44442.25567483902 48.532179832458496 59.855891227722168 68.618668556213379 277.45091986656189
leaf_count=438 21 1315 1485 761 1071 536 9349 13 92 1081 511 1809 28 166 6008 12083 47 877 61 544 234 396 453 27 112 29706 22 29 23 100
internal_value=-3.91455e-05 0.0330455 -0.0102865 0.0689472 0.0186443 -0.014638 0.00536788 0.100602 0.128823 0.0457593 -0.0153343 0.0367763 0.0361118 0.120616 0.0108663 -0.008636 0.165616 0.0258306 0.108933 0.0625557 0.0778297 0.0575198 0.0268481 0.0824444 0.123675 -0.0182039 0.105716 0.173071 0.0953354 0.104966
internal_weight=109663 25933.6 83729.1 7407.09 18526.5 65517.1 18212 3144.36 1231.02 4262.73 64634.4 5550.35 882.637 1176.04 12976.1 19369.2 385.904 3300.28 161.854 2364.82 1359.57 770.501 3325.08 1913.33 315.143 45265.3 589.066 108.388 790.138 721.519
internal_count=69398 14748 54650 3668 11080 43363 11287 1341 441 2327 42836 3124 527 428 7956 12594 139 1948 89 1246 702 417 1938 900 139 30242 285 51 289 266
cat_boundaries=0 159 330 506 665 666 842 1017 1176 1351
cat_threshold=0 0 0 0 8192 0 0 0 0 0 0 0 0 0 0 0 0 0 0 0 0 0 32768 0 0 0 0 0 0 0 0 0 0 0 0 0 0 0 0 0 0 0 0 0 0 0 0 0 0 0 0 0 0 0 0 0 0 0 0 0 1572864 0 0 0 0 0 0 0 0 0 0 1074266113 1024 32 128 0 0 0 0 0 20971520 2179072 0 0 0 0 0 36 0 0 0 0 0 0 4194304 0 0 0 0 0 1220542464 0 0 0 0 4505600 0 0 0 0 0 0 0 0 0 0 0 1048576 0 0 0 2 0 0 0 0 0 0 0 4 0 0 0 0 0 0 0 0 0 0 0 0 0 0 0 0 0 0 0 0 0 0 0 0 0 0 0 262144 603979776 0 0 0 0 0 0 0 0 0 0 0 0 0 0 0 0 0 0 0 0 0 0 0 0 0 0 0 0 0 2097152 0 4 0 0 0 0 0 0 0 671088640 0 0 0 0 0 0 0 0 0 0 0 0 134217728 0 0 0 0 2147483648 0 0 2147483648 0 0 0 0 0 0 0 268435456 0 0 536870920 1048576 0 592 0 0 4194304 0 0 0 0 0 0 1073741824 128 0 0 0 0 0 0 0 0 0 0 0 0 0 0 1 0 0 16777216 0 1048580 0 0 0 0 0 1073741824 0 0 0 0 65536 0 0 0 0 0 1 0 0 0 0 0 2 0 0 2048 0 0 0 0 0 0 0 0 0 268435456 16 0 0 0 0 0 0 0 0 0 0 16 0 0 0 0 2147483648 0 0 0 0 0 0 0 256 0 0 0 16 0 0 0 0 0 0 0 16384 0 8388608 0 0 0 0 0 0 0 0 0 0 0 0 0 0 0 0 0 0 0 0 0 0 0 0 0 0 0 0 0 0 0 0 0 0 0 0 0 16 0 0 0 0 0 0 0 0 0 2147483648 0 0 335544320 0 0 0 0 0 0 4194304 256 0 0 524288 4096 0 0 0 0 0 4194368 0 0 65536 0 0 0 64 0 16 0 0 0 0 0 0 0 0 0 0 0 8192 0 0 0 0 0 6291460 0 0 0 0 0 0 0 0 524288 0 65536 0 0 0 1073741824 536870978 0 0 0 0 0 64 0 0 0 2048 0 0 0 0 0 0 0 0 0 0 0 128 0 0 0 0 0 0 0 0 0 0 0 0 0 0 67108864 0 0 0 0 0 0 0 0 0 0 0 0 0 0 0 0 131072 0 0 0 0 0 0 0 0 0 0 0 0 0 0 0 0 0 0 0 0 0 0 0 0 0 0 0 0 0 0 0 0 0 0 0 0 0 0 0 0 0 0 0 0 0 0 0 0 0 0 0 0 134217728 0 0 0 0 2147483680 0 0 2148532224 0 0 0 0 0 0 0 0 0 0 524288 1024 0 68288 0 0 0 0 0 16777216 65536 0 0 0 0 0 5 0 0 0 0 4 0 0 0 0 0 0 1572864 146800640 0 0 0 0 1359872 0 0 0 0 0 0 0 0 524288 0 0 0 0 0 0 0 0 0 0 0 0 0 0 0 0 0 0 0 0 0 0 0 0 0 0 128 16 0 0 0 0 0 0 0 0 0 0 16 0 0 0 0 2684354560 10 0 0 0 0 0 0 0 0 0 0 0 0 0 0 0 0 0 0 0 0 0 0 0 0 0 0 0 0 0 0 0 0 0 0 0 0 0 0 0 131072 268435456 0 0 0 0 0 0 0 0 0 0 0 0 128 0 0 0 276824096 0 0 335544320 0 0 0 0 1048576 0 0 2 0 0 0 4608 9216 303136 0 4 0 64 0 0 32768 16777216 0 0 0 0 17 0 0 0 2147483648 0 0 0 0 0 0 0 524288 0 0 0 65536 0 0 0 0 0 0 0 0 0 0 0 0 0 2097152 6291456 0 0 0 0 0 0 0 0 0 0 0 0 0 0 0 0 0 0 0 0 0 0 256 0 0 0 0 0 0 0 0 0 0 0 0 0 0 0 0 0 0 0 0 0 0 0 0 0 0 0 0 0 0 0 0 0 131072 0 0 0 0 0 0 0 0 0 0 0 0 0 0 0 0 0 0 0 0 0 0 0 0 0 0 0 0 0 0 67108864 0 0 0 0 0 0 0 0 0 0 0 0 536870912 262144 0 0 0 17039360 0 0 0 0 0 0 0 0 33554432 0 0 536870912 2097152 0 0 0 0 0 1073741952 0 0 2147483648 0 513 1056 2105344 0 0 0 0 0 0 0 0 0 2048 0 0 0 0 0 0 2147483648 4 0 0 0 0 0 0 5242880 1073807360 64 0 0 0 4096 0 294912 0 0 0 0 0 0 0 0 0 8192 0 0 0 0 0 0 0 0 0 0 0 0 0 65536 0 0 0 0 0 0 0 0 131072 0 0 0 0 0 0 0 0 0 0 0 0 0 0 0 0 0 0 0 0 0 0 0 0 0 0 0 0 0 0 0 0 0 16384 0 0 0 0 0 0 0 0 0 0 0 0 0 0 0 0 0 0 0 0 0 0 0 0 0 0 0 0 0 0 0 0 0 0 0 0 0 0 0 0 0 0 0 0 0 0 0 0 0 0 0 0 0 0 0 0 0 0 0 0 0 0 0 0 0 0 0 0 0 0 0 1 0 32 0 0 0 0 0 0 16777216 16384 0 0 0 0 0 0 0 0 0 0 0 0 0 0 0 0 0 0 134217728 0 0 0 0 311296 0 0 0 0 0 0 0 0 0 0 0 0 0 0 0 0 0 0 0 0 0 0 0 0 0 0 0 0 0 0 0 0 0 0 0 0 0 0 0 0 0 0 0 0 0 0 0 0 0 0 0 0 536870912 0 0 0 0 2048 0 0 0 0 0 0 0 0 0 0 0 0 0 0 0 35651584 0 0 0 0 0 0 0 0 0 0 0 1024 2147483648 0 0 0 0 0 0 0 0 0 0 0 0 0 0 0 0 0 0 1024 0 0 0 0 0 16396 0 1073741824 0 0 0 0 0 0 0 0 0 2147483648 0 0 0 270336 0 0 0 0 2097152 0 12800 0 0 0 0 0 1048580 0 0 0 0 0 0 0 0 0 0 0 0 0 16777216 0 1024 0 1073741824 0 67108864 0 0 0 0 0 0 0 0 2 0 0 0 0 0 1 0 0 0 0 0 0 4 0 0 0 0 0 0 0 0 0 0 524288 128 1 0 0 0 0 4 0 0 0 0 0 0 0 0 0 0 0 0 0 0 0 0 0 0 0 0 0 0 4 0 0 0 4
is_linear=0
shrinkage=0.05


Tree=4
num_leaves=31
num_cat=12
split_feature=9 19 15 16 19 19 19 16 13 18 19 16 8 19 16 13 19 22 6 19 5 18 16 19 5 16 19 19 6 8
split_gain=13799.5 4491.14 2212.83 1487.95 914.56 823.956 692.612 509.394 491.873 449.637 441.049 399.754 462.267 315.964 286.347 271.085 247.931 254.443 246.917 241.981 292.947 231.158 222.74 247.127 218.481 214.233 209.19 207.398 203.617 240.077
threshold=0.47916666666666669 0 25.500000000000004 5.5625000000000009 1 2 3 2.4375000000000004 2.5000000000000004 5.5000000000000009 4 16.104166666666668 1.4583333333333337 5 3.6875000000000004 34.500000000000007 6 7 3.5000000000000004 8 10.500000000000002 16.500000000000004 1.5625000000000002 9 10.500000000000002 3.6875000000000004 10 11 2.8333333333333335 0.95833333333333337
decision_type=2 9 2 2 9 9 9 2 2 2 9 2 2 9 2 2 9 1 2 9 2 2 2 9 2 2 9 9 2 2
left_child=2 3 4 9 14 7 25 -3 27 26 18 19 -13 -10 -1 -9 -14 -18 -7 20 -5 -11 -8 -24 -23 -4 -2 -6 -28 -30
right_child=1 5 6 11 8 10 22 15 13 21 -12 12 16 -15 -16 -17 17 -19 -20 -21 -22 24 23 -25 -26 -27 28 -29 29 -31
leaf_value=0.016565319545492441 0.029893534856534856 0.017630387700204406 0.018851915637892219 0.082419933738249823 0.0094586830381974286 0.015487198817761283 -0.0059973191654111736 0.047832142290865833 0.024739077303992413 0.0088817654840762233 0.005814152153174189 0.23418830086979534 0.054135049331117818 -0.009779390642553001 0.07634600785139331 0.13819701527384962 0.077059212157161924 0.13526852705210499 0.040582244374223475 0.05390028750340678 0.17418111083923471 0.037701370020454102 0.02153992955218342 0.0013591819716679318 0.15252289799439689 0.04861526189634393 0.051359947835592258 -0.018554644548126203 0.16206589624433287 0.075174639365124293
leaf_weight=746.47445511817932 606.71355545520782 2098.4627548456192 2388.900593996048 1064.3436101675034 669.48926591873169 2491.5379694700241 6791.6510910987854 2473.1147742271423 678.91335082054138 1047.1349803209305 9930.0888901948929 67.369948148727417 308.47667598724365 18478.41281414032 273.78231203556061 85.8757244348526 440.96652317047119 613.04602265357971 1615.9235692024231 1105.8235951662064 94.718679189682007 905.15632629394531 1986.9786987304688 6334.3356502056122 43.416442036628723 809.45446181297302 1040.17349588871 43721.462824344635 89.622437119483948 703.47253227233887
leaf_count=451 316 1208 1385 455 432 1464 4266 1288 402 589 6123 11 117 12163 142 37 143 182 867 497 37 498 1228 3979 23 429 536 29773 38 319
internal_value=-4.87832e-05 0.0311214 -0.0101375 0.0621253 -0.0144883 0.0175951 0.00520407 0.0358137 -0.015242 0.04268 0.0115293 0.0856384 0.106337 -0.00854829 0.0322908 0.0508646 0.100016 0.111869 0.0252983 0.0725708 0.0891495 0.0250778 0.000721167 0.0062055 0.0429568 0.0263023 0.0570771 -0.0181342 0.0655527 0.0849936
internal_weight=109705 26825.4 82879.9 8130.43 64568.5 18695 18311.3 4657.45 63548.3 4435.69 14037.6 3694.75 1429.86 19157.3 1020.26 2558.99 1362.49 1054.01 4107.46 2264.89 1159.06 1995.71 15113 8321.31 948.573 3198.36 2439.98 44391 1833.27 793.095
internal_count=69398 14748 54650 3761 43363 10987 11287 2533 42770 2319 8454 1442 453 12565 593 1325 442 325 2331 989 492 1110 9473 5207 521 1814 1209 30205 893 357
cat_boundaries=0 159 335 511 670 824 999 1158 1159 1318 1485 1644 1819
cat_threshold=0 0 0 0 8192 0 0 0 0 0 0 0 0 0 0 0 0 0 0 0 0 0 32768 0 0 0 0 0 0 0 0 0 0 0 0 0 0 0 0 0 0 0 0 0 0 0 0 0 0 0 0 0 0 0 0 0 0 0 0 0 1572864 0 0 0 0 0 0 0 0 0 0 1 1024 32 192 0 0 0 0 0 20971520 2179072 0 0 0 0 0 36 0 0 0 0 0 0 4194304 0 0 0 0 0 1220542464 0 0 0 0 4505600 0 0 0 0 0 0 0 0 0 0 0 1048576 0 0 0 2 0 0 0 0 0 0 0 4 0 0 0 0 0 0 0 0 0 0 0 0 0 0 0 0 0 0 0 0 0 0 0 0 0 0 0 262144 603979776 0 0 0 0 0 0 0 16384 0 8388608 0 0 0 0 0 0 0 0 0 0 0 0 0 0 0 0 0 0 0 0 0 0 0 0 0 0 0 0 0 0 0 0 0 0 0 0 0 16 0 0 0 0 0 0 0 0 0 2147483776 0 0 268435456 0 0 0 0 0 0 4194304 256 0 0 524288 4096 0 0 0 0 0 4194368 0 0 65536 0 0 0 64 0 20 0 0 0 0 0 0 0 0 0 0 0 8192 65536 0 0 0 0 6291460 0 0 0 0 0 0 0 0 524288 0 65536 0 0 0 1073741824 536870978 0 0 0 0 0 64 0 0 0 2048 0 0 0 0 0 0 0 0 0 0 0 128 0 0 0 0 0 0 0 0 0 0 0 0 0 0 67108864 0 0 0 0 0 0 0 0 0 0 0 0 0 0 0 0 131072 0 0 0 0 0 0 0 0 0 0 0 0 0 0 0 0 0 0 0 0 0 0 0 0 0 0 0 0 0 2097152 0 4 0 0 0 0 0 0 0 671088640 0 0 0 0 0 0 0 0 0 0 0 0 134217728 128 0 0 0 2147483648 0 0 2147483648 0 0 0 0 0 0 0 268435456 0 0 1611137032 1048576 0 16 0 0 4194304 0 0 0 0 0 0 1073741824 0 0 0 0 0 0 0 0 0 0 0 0 0 0 0 1 0 0 16777216 0 1048580 0 0 0 0 0 1073741824 0 0 0 0 65536 0 0 0 0 0 1 0 0 0 0 0 2 0 0 2048 0 0 0 0 0 0 0 0 0 268435456 16 0 0 0 0 0 0 0 0 0 0 0 0 0 0 0 2147483648 0 0 0 0 0 0 0 256 0 0 0 16 0 0 0 0 131072 0 0 0 0 0 0 0 0 0 0 0 0 0 0 0 0 0 0 0 0 0 0 0 0 0 0 0 0 0 0 0 0 0 0 0 0 0 0 0 0 0 0 0 0 0 0 0 0 0 0 0 0 134217728 0 0 0 0 2147483680 0 0 1048576 0 0 0 0 0 0 0 0 0 0 524289 5120 0 66240 0 0 0 0 0 16777216 65536 0 0 0 0 0 5 0 0 0 0 4 0 0 0 0 0 0 1572864 146800640 0 0 0 0 1327104 0 0 0 0 0 0 0 0 0 0 0 0 0 0 0 0 0 0 0 0 0 0 0 0 0 0 0 0 0 0 0 0 0 0 0 128 16 0 0 0 0 0 0 0 0 0 0 16 0 0 0 0 2751463424 0 0 0 0 0 0 0 0 0 0 0 0 0 0 0 0 0 0 0 0 0 0 0 0 0 0 0 0 0 0 0 0 0 0 0 0 0 0 0 131072 268435456 0 0 0 0 0 0 0 0 0 0 0 0 0 0 0 0 276824096 0 0 335544320 0 0 0 0 1048576 0 0 2 0 0 0 512 9216 303648 0 4 0 64 0 0 32768 16777216 0 0 128 0 17 0 0 0 2147483648 0 0 0 0 0 0 0 524288 536870912 0 0 0 0 0 0 0 0 0 0 0 0 0 0 0 0 2097152 6291456 0 0 0 0 0 0 0 0 0 0 0 0 0 0 0 0 0 0 0 0 0 0 256 0 0 0 0 0 0 0 0 0 0 0 16 0 0 0 0 0 0 0 0 0 0 0 0 0 0 0 0 0 0 0 0 0 0 0 0 0 0 0 0 0 0 67108864 0 0 0 0 0 0 0 0 0 0 0 0 536870912 0 0 0 0 16777216 0 0 0 0 65536 0 0 0 33554432 0 0 603979776 2097152 0 0 0 0 0 1073741952 0 0 2147483648 0 512 1056 2105344 0 0 0 0 0 0 0 0 0 2048 0 0 0 0 0 0 2147483648 4 0 0 0 0 0 0 5242880 1073741824 64 0 0 0 0 0 32768 0 0 0 0 0 0 0 0 0 8192 0 0 0 0 0 0 0 0 0 0 0 0 0 65536 0 0 0 0 0 0 0 0 0 0 0 0 0 0 0 0 0 0 0 0 0 0 0 0 0 0 0 0 0 0 0 0 0 0 0 0 0 0 0 0 0 0 16384 0 0 0 0 0 0 0 0 0 0 0 0 0 0 0 0 0 0 0 0 0 0 0 0 0 0 0 0 0 0 0 0 0 0 0 0 0 0 0 0 0 0 0 0 0 0 0 0 0 0 0 0 0 0 0 0 0 0 0 0 0 0 0 0 0 0 0 0 0 0 0 1 1024 0 64 0 0 0 0 0 16777216 0 0 0 0 0 0 4 0 0 0 0 0 0 0 0 0 0 0 0 0 0 0 0 0 0 0 0 0 0 0 0 0 0 0 0 0 0 0 0 0 0 0 0 0 0 0 0 0 0 0 0 0 0 0 0 0 0 0 0 0 0 0 0 0 0 0 0 0 0 0 0 0 0 0 0 0 0 67108864 97 0 0 0 0 0 0 0 0 0 0 0 0 0 0 0 0 0 0 0 0 0 0 0 0 0 0 0 0 0 0 0 0 0 0 0 0 0 0 0 0 0 0 0 0 0 0 0 0 0 0 0 0 0 0 0 0 0 0 0 0 0 0 0 0 0 0 0 0 0 0 0 1 0 0 0 0 0 0 0 0 4194304 81920 0 0 0 0 0 4 0 0 0 0 0 0 0 0 0 0 0 0 8388608 0 0 0 0 278528 0 0 0 0 0 0 0 0 0 0 0 0 0 0 0 0 0 0 0 0 0 0 0 0 0 0 0 0 0 0 0 0 0 0 0 0 0 0 0 0 0 0 0 0 0 0 0 0 0 0 0 0 603979776 0 0 0 0 0 0 0 0 0 0 0 0 0 0 0 0 0 0 0 0 0 0 0 0 0 0 0 0 0 0 0 0 0 0 0 0 0 0 0 131072 0 0 0 0 0 0 0 0 0 0 0 0 0 32 0 0 0 0 0 0 2148007936 0 0 0 0 0 0 1073741824 0 0 2147483648 536904328 512 0 3368 0 0 0 0 0 0 49280 16777216 0 2048 0 0 0 0 0 0 0 0 0 0 0 0 0 0 4096 536870912 0 0 0 0 0 0 0 0 0 0 0 0 0 524288 0 65536 0 2097152 0 0 0 262144 0 0 0 0 0 0 0 0 0 0 0 0 0 0 0 0 0 0 268435456 0 0 0 0 0 0 0 0 0 0 0 0 0 0 0 0 0 0 0 0 0 0 0 0 256 0 0 0 0 0 0 0 0 0 0 0 0 0 0 0 0 0 0 0 0 0 0 0 0 0 0 0 0 0 0 0 0 0 0 0 0 0 0 0 0 0 0 0 0 0 0 0 0 0 0 0 0 0 0 0 0 0 0 0 0 524288 0 0 0 0 0 0 0 0 0 0 0 0 0 192 0 0 0 0 0 0 65536 0 0 0 0 0 0 0 0 0 0 0 0 0 0 0 0 0 0 12582912 0 0 0 0 0 0 0 0 0 0 0 0 0 0 0 0 0 0 0 0 0 0 0 0 0 0 0 0 0 0 0 0 0 0 0 0 0 0 0 0 0 0 0 0 0 0 0 0 0 0 0 0 0 0 0 0 0 67108864 0 0 0 0 2048 0 0 0 0 0 0 0 0 0 0 0 0 0 0 0 35651584 0 0 0 0 0 0 0 0 0 0 0 1024 2147483648 0 0 0 0 0 0 0 0 0 0 0 0 0 0 0 0 0 0 1024 0 0 0 0 0 16396 0 1073741824 0 0 0 0 0 0 0 0 0 2147483648 0 0 0 270336 0 0 0 0 2097152 0 8704 0 0 0 0 0 0 0 0 0 0 0 0 0 0 0 0 0 0 0 16777216 0 1024 0 1073741824 0 67108864 0 0 0 0 0 0 0 0 2 0 0 0 0 0 0 0 0 0 0 0 0 4 0 0 0 0 0 0 0 0 0 0 524288 128 1 0 0 0 0 4 0 0 0 0 0 0 0 0 0 0 0 0 0 0 0 0 0 0 0 0 0 0 0 0 0 0 4
is_linear=0
shrinkage=0.05


Tree=5
num_leaves=31
num_cat=13
split_feature=9 19 15 16 19 19 19 13 16 18 19 19 16 16 19 6 22 6 0 18 16 15 19 19 1 19 18 5 19 19
split_gain=12836.1 3806.64 2145.89 1206.59 818.113 784.804 644.302 507.874 400.347 390.936 369.251 335.018 320.647 278.984 263.228 260.68 237.353 232.392 251.43 226.904 221.825 215.808 215.242 205.215 192.711 190.81 189.391 209.17 179.103 174.18
threshold=0.47916666666666669 0 25.500000000000004 5.5625000000000009 1 2 3 2.5000000000000004 2.4375000000000004 5.5000000000000009 4 5 15.895833333333334 9.1875000000000018 6 5.8333333333333348 7 2.1666666666666674 1.5000000000000002 5.5000000000000009 3.6875000000000004 103.50000000000001 8 9 3.5000000000000004 10 9.5000000000000018 2.5000000000000004 11 12
decision_type=2 9 2 2 9 9 9 2 2 2 9 9 2 2 9 2 1 2 2 2 2 2 9 9 2 9 2 2 9 9
left_child=2 3 4 9 17 8 20 22 19 28 -9 13 -5 -7 -14 -16 21 -1 -19 -3 -4 -17 -6 -8 -23 -12 -11 -28 -2 -13
right_child=1 5 6 12 7 11 23 10 -10 26 25 29 14 -15 15 16 -18 18 -20 -21 -22 24 -24 -25 -26 -27 27 -29 -30 -31
leaf_value=0.021755208319755366 0.0087499693156975217 0.033301802802246552 0.017335969840516913 0.065360005986512024 0.0075996395268538089 0.017080089328136702 0.010173127117983719 0.02428688006424436 0.044532612926895705 0.0077038087588331347 0.013679331978891318 0.015740989372019482 0.051023965757767881 0.054315729364066305 0.18807135303132511 0.19675304572414787 0.079987451349311844 0.13676283359753727 0.0055752153996380706 0.003557810918795467 0.046772277920211797 0.085332489740705841 -0.018460799537119377 -0.0029695819099886415 0.17561950307785495 -0.010802077198298557 0.028149488939656561 0.088188499349676375 0.056533290617393761 0.001206352036257843
leaf_weight=718.05040490627289 232.65867638587952 1235.1398712396622 2535.2639325857162 2396.072137594223 807.11956906318665 2849.0059386491776 4063.9584485292435 827.77528750896454 3111.219113945961 1002.0571690797806 827.43098771572113 2920.6765390634537 357.13390302658081 610.90407741069794 89.713220119476318 111.47099113464355 791.85962271690369 99.943004608154297 57.557305335998535 1333.3532495498657 856.12679874897003 185.18223690986633 42880.754682540894 10953.026686191559 86.805223703384399 17423.878230452538 875.82278561592102 173.86647260189056 2351.6304916143417 6970.7562178373337
leaf_count=418 118 684 1444 976 520 1636 2494 481 1543 559 532 1755 126 309 13 28 230 44 30 762 433 47 29743 6916 19 11595 465 89 1092 4297
internal_value=-5.57659e-05 0.0293836 -0.00998908 0.0568623 -0.0143378 0.016849 0.00504572 -0.0150072 0.0324141 0.0395469 -0.00820373 0.0102083 0.0769815 0.0235865 0.0941475 0.105088 0.0996477 0.0334376 0.0888213 0.0178611 0.0246941 0.13465 -0.0179818 0.000591555 0.114148 -0.00968532 0.0232517 0.0380941 0.0524841 0.00550961
internal_weight=109736 27685.3 82050.9 8654.27 63642.5 19031.1 18408.4 62767 5679.71 4636.04 19079.1 13351.3 4018.24 3459.91 1622.17 1265.03 1175.32 875.551 157.5 2568.49 3391.39 383.458 43687.9 15017 271.987 18251.3 2051.75 1049.69 2584.29 9891.43
internal_count=69398 14748 54650 3762 43363 10986 11287 42871 2989 2323 12608 7997 1439 1945 463 337 324 492 74 1446 1877 94 30263 9410 66 12127 1113 554 1210 6052
cat_boundaries=0 159 335 511 670 845 987 1146 1147 1322 1496 1666 1767 1941
cat_threshold=0 0 0 0 8192 0 0 0 0 0 0 0 0 0 0 0 0 0 0 0 0 0 32768 0 0 0 0 0 0 0 0 0 0 0 0 0 0 0 0 0 0 0 0 0 0 0 0 0 0 0 0 0 0 0 0 0 0 0 0 0 1572864 0 0 0 0 0 0 0 0 0 0 1073741825 1024 32 192 0 0 0 0 0 20971520 81920 0 0 0 0 0 36 0 0 0 0 0 0 4194304 0 0 0 0 0 1220542464 0 0 0 0 4505600 0 0 0 0 0 0 0 0 0 0 0 1048576 0 0 0 2 0 0 0 0 0 0 0 4 0 0 0 0 0 0 0 0 0 0 0 0 0 0 0 0 0 0 0 0 0 0 0 0 0 0 0 262144 603979776 0 0 0 0 0 0 0 16384 0 8388608 0 0 0 0 0 0 0 0 0 0 33554432 0 0 0 0 0 0 0 0 0 0 0 0 0 0 0 0 0 0 0 0 0 0 0 0 0 0 16 0 0 0 0 0 0 0 0 0 2147483648 0 0 268435456 0 0 0 0 0 0 4194304 256 0 0 524288 0 0 0 0 0 0 4194368 0 0 65536 0 0 0 64 0 20 0 0 0 0 0 0 0 0 0 0 0 8192 0 0 0 0 0 4194308 0 0 0 0 0 0 0 0 524288 0 65536 0 0 0 1073741824 536870978 0 0 0 0 0 64 0 0 0 2048 0 0 0 0 0 0 0 0 0 0 0 128 0 0 0 0 0 0 0 0 0 0 0 0 0 0 67108864 0 0 0 0 0 0 0 0 0 0 0 0 0 0 0 0 131072 0 0 0 0 0 0 0 0 0 0 0 0 0 0 0 0 0 0 0 0 0 0 0 0 0 0 0 0 0 0 0 4 0 0 0 0 0 0 0 671088640 0 0 0 0 0 0 0 0 0 0 0 0 134217728 128 0 0 0 2147483648 0 0 2147483648 0 0 0 0 0 0 0 268435456 0 0 524296 1048576 0 528 0 0 4194304 0 0 0 2097152 0 0 1073741824 0 0 0 0 0 0 0 0 0 0 0 0 0 0 0 1 0 0 16777216 0 1048580 0 0 0 0 0 1073741824 0 0 0 0 65536 0 0 0 0 0 1 0 0 0 0 0 2 0 0 2048 0 0 0 0 0 0 0 0 0 268435456 16 0 0 0 0 0 0 0 0 0 0 16 0 0 0 0 2147483648 0 0 0 0 0 0 0 256 0 0 0 16 0 0 0 0 131072 0 0 0 0 0 0 0 0 0 0 0 0 0 0 0 0 0 0 0 0 0 0 0 0 0 0 0 0 0 0 0 0 0 0 0 0 0 0 0 0 0 0 0 0 0 0 0 0 0 0 0 0 134217728 0 0 0 0 2147483680 0 0 1048576 0 0 0 0 0 0 0 0 0 0 524288 5120 0 66240 0 0 0 0 0 16777216 65536 0 0 0 0 0 5 0 0 0 0 4 0 0 0 0 0 0 1572864 683671552 0 0 0 0 1359872 0 0 0 0 0 0 0 0 0 0 0 0 0 0 0 0 0 0 0 0 0 0 0 0 0 0 0 0 0 0 0 0 0 0 0 128 16 0 0 0 0 0 0 0 0 0 0 16 0 0 0 0 2751463424 0 0 0 0 0 0 0 0 0 0 0 0 0 0 0 0 0 0 0 0 0 0 0 0 0 0 0 0 0 0 0 0 0 0 0 0 0 0 0 0 0 0 0 536870912 0 0 0 0 17039360 0 0 0 0 0 0 0 0 33554432 0 0 603979776 2097152 0 0 0 0 0 1073741952 0 0 2147483648 0 4608 1056 2149588992 0 0 0 0 0 0 0 0 0 0 0 0 0 0 0 0 2147483648 4 0 0 0 0 0 0 5242880 1073807360 64 0 0 0 2097152 0 294912 0 0 0 0 0 0 0 0 0 8192 0 0 0 0 0 0 0 0 0 0 0 0 0 65536 0 0 0 0 0 0 0 0 131072 0 0 0 0 0 0 0 0 0 0 0 0 0 0 0 0 0 0 0 0 0 0 0 0 0 0 0 0 0 0 0 0 0 16384 0 0 0 0 0 0 0 0 0 0 0 0 0 0 0 0 0 0 0 0 0 0 0 0 0 0 0 0 0 2097152 0 0 0 0 0 0 0 0 0 131072 268435456 0 0 0 0 0 0 0 0 0 0 0 0 0 0 0 0 276824096 0 0 335544320 0 0 0 0 1048576 0 2147483648 2 0 0 536870912 512 9216 33824 0 4 0 64 0 0 32768 16777216 0 0 128 0 17 0 0 0 2147483648 0 0 0 0 0 0 0 524288 0 0 0 65536 0 0 0 0 0 0 0 0 0 0 0 0 0 2097152 6291456 0 0 0 0 0 0 0 0 0 0 0 0 0 0 0 0 0 0 0 0 0 0 256 0 0 0 0 0 0 0 0 0 0 0 0 0 0 0 0 0 0 0 0 0 0 0 0 0 0 0 0 0 0 0 0 0 0 0 0 0 0 0 0 0 0 0 0 0 0 0 0 0 0 0 0 0 0 0 0 0 0 0 0 0 0 0 0 0 0 0 0 0 0 0 1 1024 0 64 0 0 0 0 0 0 0 0 0 0 0 0 4 0 0 0 0 0 0 0 0 0 0 0 0 0 0 0 0 0 16384 0 0 0 0 0 0 0 0 0 0 0 0 0 0 0 0 0 0 0 0 0 0 0 0 0 0 0 0 0 0 0 0 0 0 0 0 0 0 0 0 0 0 0 0 0 0 0 0 0 0 0 0 67108864 10 0 0 0 0 2048 0 0 0 0 0 0 0 0 0 0 0 0 0 0 0 2097152 0 0 0 0 0 0 0 0 4194304 0 0 1024 2147483648 0 0 0 0 0 0 0 0 0 0 0 0 0 0 0 0 0 0 1024 0 0 0 0 0 16396 0 1073741824 0 0 0 0 0 0 0 0 0 2147483648 0 0 0 270336 0 0 0 0 2097152 0 8192 0 0 0 0 0 1048576 0 0 0 0 0 0 0 0 0 0 0 0 16 16777216 0 1024 0 2097152 0 67108864 0 0 0 0 0 0 0 0 2 0 0 0 0 8 0 0 0 0 0 2 0 12 0 0 0 0 0 0 0 0 0 0 524288 128 1 0 0 0 0 4 0 0 0 0 0 0 0 0 0 0 0 0 0 0 0 0 0 0 0 0 0 0 4 0 0 0 4 0 0 0 0 0 0 0 0 0 0 0 0 0 0 0 0 0 0 0 0 0 0 0 0 0 0 0 0 0 0 0 4 0 0 0 0 0 0 0 0 0 0 0 0 0 0 0 0 0 0 0 0 0 0 0 0 0 0 0 0 2147483648 0 0 0 0 0 0 1073741824 131328 0 2147483650 536871041 0 8192 2099256 0 0 0 0 0 0 49152 16777216 0 2048 0 0 0 0 0 0 0 0 0 0 0 0 0 64 4096 0 0 0 0 0 0 0 0 0 0 0 0 0 0 524288 0 65536 0 2097152 0 0 0 0 0 0 0 0 0 2 0 0 0 0 0 0 0 0 0 0 0 0 268435456 0 0 0 0 0 0 0 2097152 0 0 0 2 0 0 0 0 0 0 0 0 0 0 0 0 256 0 0 0 0 0 0 67108864 0 0 0 64 0 0 0 0 0 0 0 0 0 0 0 0 0 0 0 0 0 0 0 0 0 0 0 0 0 0 67108864 0 0 0 0 0 0 0 0 0 0 0 0 0 262144 0 0 0 0 0 0 0 0 65536 0 0 0 128 0 0 0 0 0 285212672 0 0 0 1024 0 0 0 0 1048577 0 0 0 0 0 0 0 0 2102272 4 0 2048 262152 0 0 0 0 0 0 0 0 0 0 0 134217728 0 0 268566528 0 0 65536 0 1052672 0 0 0 0 0 0 0 0 0 0 0 0 6291456 0 0 2147483648 65537 131072 0 0 0 0 0 0 0 0 0 0 0 0 0 0 0 0 0 0 0 0 0 0 0 0 0 0 0 0 0 0 0 0 0 0 0 0 0 0 0 0 0 0 0 0 0 268435456 0 0 0 0 0 0 0 0 0 0 0 0 0 0 0 0 0 0 0 0 0 0 0 0 0 0 0 0 0 0 0 0 0 0 0 0 0 0 0 0 0 0 0 0 0 0 0 0 0 0 0 0 0 0 0 0 0 0 0 0 524288 0 0 0 0 0 0 0 0 0 0 0 0 0 128 0 0 0 0 0 0 0 0 0 0 0 0 0 0 0 0 0 0 0 0 0 0 0 0 0 12582912 0 0 0 0 0 0 0 0 0 0 0 0 0 0 0 0 0 0 0 0 0 0 0 0 0 0 0 0 0 1048576 67108864 2 0 0 0 0 0 0 0 0 0 0 0 536870912 8 0 0 0 0 0 0 0 0 32 0 0 0 0 1 0 0 2 0 0 0 0 0 1073741824 16777216 0 1 0 4096 0 337928 0 0 0 0 0 0 0 67108864 0 0 64 0 16777216 0 0 0 0 0 0 0 0 0 0 64 0 536870912 0 0 0 0 2097152 0 0 1024 0 0 0 0 0 524288 0 0 0 0 0 0 0 0 0 0 0 0 0 0 0 0 0 0 0 0 0 0 0 0 0 0 2147483648 0 0 0 0 0 0 0 0 0 0 0 2 0 0 0 0 0 0 0 0 0 0 0 0 0 0 0 0 0 0 0 67371008
is_linear=0
shrinkage=0.05


Tree=6
num_leaves=31
num_cat=12
split_feature=15 6 19 19 9 19 19 19 7 18 16 19 18 19 15 16 0 15 15 19 19 16 16 19 13 19 15 6 22 16
split_gain=12021.5 2971.43 2095 1559.52 1379.07 665.95 658.745 532.83 513.07 489.791 379.537 374.625 315.011 311.261 306.116 305.704 281.583 281.453 283.976 273.799 267.911 255.123 249.552 246.869 258.199 241.918 239.684 246.233 206.919 204.008
threshold=44.500000000000007 2.8333333333333335 0 1 0.22916666666666671 2 3 4 1.0833333333333337 4.5000000000000009 7.0625000000000009 5 4.5000000000000009 6 9.5000000000000018 6.1875000000000009 1.0000000180025095e-35 37.500000000000007 18.500000000000004 7 8 2.4791666666666674 16.104166666666668 9 15.500000000000002 10 100.50000000000001 4.5000000000000009 11 1.729166666666667
decision_type=2 2 9 9 2 9 9 9 2 2 2 9 2 9 2 2 2 2 2 9 9 2 2 9 2 9 2 2 1 2
left_child=2 5 8 9 7 12 10 -4 -1 11 -6 22 -2 29 25 -11 17 18 -10 -8 -5 -7 28 -17 -25 -9 -26 -28 -3 -14
right_child=1 3 4 20 6 21 19 14 16 15 -12 -13 13 -15 -16 23 -18 -19 -20 -21 -22 -23 -24 24 26 -27 27 -29 -30 -31
leaf_value=0.018058557299427711 0.042484611305308707 0.11371816327673433 0.019200765661937028 0.036719417092017981 0.020994529431849322 0.0024923804967665933 0.019924386185845994 0.0089581602831985338 0.13252786524451271 0.031769988664900016 0.090684977121608543 0.063416057275846108 0.022296950741439919 0.011855532647019804 -0.010427720103500245 0.039091821635337157 0.041849689326936473 0.18951070781942483 0.043810596343861544 -0.004068785725353608 0.016046524222754363 0.01777276557270915 0.13396363810601372 0.046404259355631278 0.15584893399596114 -0.019146229035589934 0.16618341251525792 0.069221773370075956 0.049359800981289115 0.094656656481576423
leaf_weight=708.82591772079468 2246.936408996582 298.90715932846069 1075.5839035511017 3579.8135313987732 769.25100350379944 8883.0665266513824 1262.4837162494659 780.18429696559906 167.13573813438416 1404.6121460199356 261.87247169017792 1986.12045109272 183.54963970184326 2752.6782252788544 16133.685944199562 761.23677372932434 326.18987548351288 77.680331468582153 195.950279712677 18173.505275964737 2885.3151948451996 3944.6476262807846 410.59769177436829 388.1599303483963 139.75122690200806 38894.964793920517 75.911191821098328 476.33710908889771 311.45293045043945 207.5558340549469
leaf_count=422 1154 107 667 1783 445 5331 736 531 75 696 139 759 100 1495 10965 265 161 31 77 11577 1603 2302 90 160 37 27281 23 155 124 107
internal_value=-6.20288e-05 0.0263511 -0.0104282 0.0448975 -0.0115552 0.013404 -0.000426702 -0.0155613 0.048397 0.0627072 0.038322 0.0773463 0.0281356 0.0179695 -0.0162318 0.0493388 0.077067 0.10313 0.0846489 -0.00250084 0.0275324 0.00718565 0.102817 0.0627402 0.0783192 -0.0185961 0.0973529 0.08255 0.0835494 0.0591843
internal_weight=109764 30936.6 78827.3 12718.2 77351.5 18218.4 20467.1 56884.4 1475.78 6253.09 1031.12 3007.08 5390.72 3143.78 55808.8 3246.01 766.956 440.766 363.086 19436 6465.13 12827.7 1020.96 1841.4 1080.16 39675.1 692 552.248 610.36 391.105
internal_count=69398 16291 53107 5802 52341 10489 12897 39444 766 2416 584 1080 2856 1702 38777 1336 344 183 152 12313 3386 7633 321 640 375 27812 215 178 231 207
cat_boundaries=0 159 318 477 648 822 944 1103 1278 1454 1572 1746 1747
cat_threshold=0 0 0 0 0 0 0 0 0 0 0 0 0 0 0 0 0 0 0 0 0 0 32768 0 0 0 0 0 0 0 0 4 0 0 0 0 0 0 0 671088640 0 0 0 0 0 0 0 0 0 0 0 0 0 0 0 0 0 64 0 0 1048576 0 0 0 0 0 0 4456448 0 0 0 0 0 32 128 0 0 0 4194304 0 0 0 0 0 0 0 0 48 0 0 0 0 0 0 5242880 0 0 0 0 0 142606336 0 0 0 0 13926404 0 0 0 0 0 0 0 0 0 0 0 0 0 0 1073741824 536870914 0 0 0 0 0 0 0 0 0 2048 0 0 0 4096 0 0 0 0 0 0 16 0 0 0 0 0 0 2097152 0 0 0 16 0 0 0 0 67108864 0 0 0 0 0 0 0 0 0 0 0 0 0 0 0 0 0 0 0 0 0 0 0 0 0 0 0 0 0 0 0 0 0 0 0 0 0 0 0 536870912 0 0 0 0 0 0 0 0 0 0 0 0 0 0 0 0 0 2147483648 0 0 524288 0 0 0 0 0 0 0 268435456 0 0 524297 1024 0 176 0 0 4194304 0 0 20971520 81920 0 0 0 0 0 0 0 0 0 0 0 0 0 0 0 0 0 0 146800640 0 0 0 0 311296 0 0 0 0 0 0 0 0 0 0 0 1048576 0 0 0 2 0 0 0 0 0 0 0 4 0 0 0 0 0 0 0 0 0 0 0 0 0 0 0 0 0 0 0 0 0 0 0 0 0 0 0 0 603979776 0 0 0 0 0 0 0 0 0 0 0 0 0 0 0 0 0 0 0 0 0 0 0 0 0 0 0 0 0 0 0 0 0 0 0 0 0 0 0 0 0 0 0 0 0 0 0 0 0 0 0 0 0 128 0 0 0 2147483648 0 0 2417491968 0 0 0 0 0 0 0 0 0 0 1 1024 0 328256 0 0 0 64 0 0 81920 0 0 0 0 65536 4 0 0 0 0 0 0 0 0 0 0 0 0 146800641 0 0 0 0 49152 0 0 0 0 0 32 0 0 0 0 65536 1048576 0 0 0 0 0 0 0 0 0 0 2 0 0 0 0 0 0 0 0 0 0 0 0 268435456 0 0 0 0 0 0 0 0 0 0 0 0 0 0 0 0 2751463424 0 0 0 0 8192 0 0 0 0 0 0 0 0 0 0 0 0 0 0 0 1048576 0 0 0 0 0 0 0 0 0 0 0 0 0 0 0 0 0 0 0 0 0 0 0 8 0 0 16 0 0 0 0 134217728 32 0 0 0 2147483680 1024 0 603979776 0 0 16777216 0 0 0 1024 2 0 2147483648 0 0 0 0 0 0 0 0 0 4194304 2097152 0 0 0 0 0 0 0 0 0 0 0 0 0 0 0 0 0 1048576 1073741824 0 0 0 0 0 0 0 384 0 0 0 0 0 0 0 65536 8192 0 0 0 0 1 0 0 0 0 0 0 8 0 0 0 0 0 0 0 0 0 0 0 0 0 128 0 0 0 0 0 0 0 0 0 0 0 0 0 0 0 0 0 0 64 0 0 0 0 0 0 0 4 0 0 0 0 0 0 0 0 0 0 0 0 0 0 0 0 0 0 0 0 35651584 0 0 0 0 0 0 0 2 0 0 0 0 2147483648 0 0 0 0 0 0 268435456 0 0 0 0 0 0 0 0 0 0 0 0 0 0 0 0 2147483776 0 0 268435456 0 0 0 0 0 0 128 256 0 0 524296 2560 0 8192 0 0 0 0 0 8388608 65536 0 0 0 131072 0 4 0 0 0 0 0 0 0 0 0 0 0 0 4194304 0 0 1024 0 0 0 67141632 0 0 0 0 0 0 524288 0 65536 0 0 0 0 0 0 0 0 0 0 0 0 4 0 0 0 0 0 0 0 0 0 0 0 0 0 0 0 0 0 0 0 0 0 0 0 0 0 0 0 0 0 0 0 0 0 0 0 0 256 0 0 268435456 0 0 1048576 524288 0 0 0 0 0 0 0 0 0 0 0 0 0 0 0 0 0 0 0 0 0 0 0 0 0 0 0 0 0 0 0 0 0 0 0 0 0 0 0 0 0 0 0 0 0 0 0 0 0 0 0 0 0 0 0 0 0 0 0 0 524288 0 0 0 0 0 0 0 0 0 0 524288 0 0 0 0 0 0 0 0 0 16384 0 0 0 0 0 0 0 0 0 0 0 0 0 0 0 0 0 0 0 0 0 0 0 294912 0 0 0 0 0 0 0 0 0 0 0 1048576 0 0 0 2 0 0 0 0 0 0 0 0 0 0 0 0 0 0 0 0 0 0 0 0 0 0 0 0 0 0 0 0 0 0 0 0 0 0 0 0 0 0 0 0 0 0 0 0 0 0 0 0 0 0 0 0 0 0 0 0 0 0 0 0 2149056512 0 0 0 0 0 0 0 0 0 0 0 0 0 0 0 0 0 0 0 0 0 0 0 0 0 65536 4 0 0 0 0 0 0 0 0 0 0 0 0 146800640 0 0 0 0 0 0 0 0 0 0 0 0 0 0 0 0 0 0 0 0 0 0 0 0 0 0 0 0 0 0 0 0 0 0 0 0 0 0 0 0 0 0 0 0 0 0 0 0 0 0 0 0 0 0 0 0 0 536870912 0 0 0 0 0 0 0 0 0 0 0 0 0 0 0 0 0 0 0 0 0 0 0 0 0 0 0 0 0 3145728 67108864 0 0 0 0 0 262144 0 0 131072 0 0 0 0 0 0 0 0 0 0 0 0 0 0 0 0 0 0 0 0 0 0 0 16384 0 0 0 1073741824 0 0 1073741824 0 0 1024 65792 0 0 0 0 0 0 49152 0 0 2048 128 0 0 0 0 0 0 0 0 0 0 0 0 0 4194304 4390912 0 0 65536 0 2097152 0 0 0 0 0 0 0 0 0 0 0 1048576 0 0 2147483648 0 0 0 0 0 0 0 0 4 0 4096 0 0 0 0 0 0 0 0 0 0 0 0 0 0 0 0 2 0 0 0 0 1073741824 0 0 0 0 0 0 0 0 0 0 0 0 0 0 0 0 0 0 0 0 16384 0 0 0 0 0 0 0 0 0 0 0 0 0 0 0 0 0 0 0 0 0 0 0 0 0 0 0 0 0 0 0 0 0 0 0 0 0 0 0 0 0 0 0 0 0 0 0 0 0 0 0 0 134217728 0 0 0 0 268435488 0 0 0 0 0 0 0 0 0 2147483648 2 0 0 536870912 4608 8224 2100808 0 0 0 64 0 0 32768 0 0 0 128 0 5 0 0 0 0 0 0 0 0 0 0 0 524288 1 0 0 0 0 1048576 0 0 0 0 0 0 0 0 0 0 0 0 4194304 0 0 0 262144 0 0 0 0 0 2 0 0 0 0 0 0 0 0 0 0 0 0 268435456 16 0 0 0 0 0 0 0 0 0 0 16 0 0 0 0 0 0 0 0 0 0 0 0 256 0 0 0 0 0 0 0 0 131072 0 0 0 0 0 0 0 0 0 0 0 0 0 0 0 0 0 0 0 0 0 0 0 0 0 0 0 0 0 0 0 0 0 0 0 0 0 0 0 0 0 0 0 0 0 0 0 0 0 0 0 0 0 0 0 0 0 0 0 0 524288 0 0 0 0 0 0 0 0 0 0 524288 1024 0 0 0 0 0 0 0 16777216 16384 0 0 0 0 0 0 0 0 0 0 0 0 0 0 0 0 0 0 4194304 0 0 0 0 311296 0 0 0 0 0 0 0 0 0 0 0 1048576 0 0 0 0 0 0 0 0 0 0 0 0 0 0 0 0 0 0 0 0 1048576 0 0 0 0 0 0 0 0 1048576 0 0 0 0 0 0 0 0 0 0 0 0 0 0 0 67108864 0 16 0 0 0 0 0 98304 0 0 0 33554432 2 0 0 0 0 262144 0 0 0 0 4 0 16777216 0 1 0 2147483648 0 0 0 0 2097152 0 45056 0 0 0 0 0 0 0 0 0 2147483648 0 0 0 0 0 0 2048 0 16 0 0 0 0 0 0 34603008 128 0 0 0 0 0 0 0 2 0 0 0 0 0 1 0 0 0 0 0 32 0 0 65536 0 0 0 0 0 0 0 0 0 128 0 0 0 0 134217728 0 1 0 0 0 0 0 0 0 0 0 0 0 0 0 0 0 0 0 0 0 0 0 4 0 0 268435456 26
is_linear=0
shrinkage=0.05


Tree=7
num_leaves=31
num_cat=15
split_feature=15 6 9 19 19 19 19 18 19 15 18 19 19 16 19 16 16 19 9 6 19 19 17 16 19 0 19 15 19 19
split_gain=11244 2589.25 2000.56 1459.37 1302 608.04 602.589 443.781 403.28 383.615 342.453 312.963 306.649 280.965 246.896 246.39 236.449 231.104 225.681 288.03 224.508 212.537 197.052 190.721 186.366 180.259 204.537 185.814 178.947 164.89
threshold=44.500000000000007 2.8333333333333335 0.27083333333333343 0 1 2 3 4.5000000000000009 4 9.5000000000000018 4.5000000000000009 5 6 6.5625000000000009 7 9.1041666666666696 6.1875000000000009 8 2.6041666666666674 7.5000000000000009 9 10 1.0000000180025095e-35 40.875000000000007 11 1.0000000180025095e-35 12 106.50000000000001 13 14
decision_type=2 2 2 9 9 9 9 2 9 2 2 9 9 2 9 2 2 9 2 2 9 9 2 2 9 2 9 2 9 9
left_child=2 5 6 13 7 -2 -1 20 -5 12 11 -7 -8 -4 15 -6 29 -10 21 -20 22 -18 -3 -16 -11 26 27 -22 -27 -9
right_child=1 4 3 8 14 10 9 16 17 24 -12 -13 -14 -15 23 -17 18 -19 19 -21 25 -23 -24 -25 -26 28 -28 -29 -30 -31
leaf_value=0.021331856421959582 0.030226352789359229 0.074256625288602496 0.037163127495684775 0.030921619120694258 0.026342654884611589 0.030247982959833903 0.013351627093876627 0.043379026072010114 0.017641871978295028 0.012853753795616783 0.0016584051260621997 0.0071985450980759456 -0.018669194311837736 0.090226518602870232 0.015172887966898228 0.053579678890272708 0.024602023367336023 -0.0030183254407953239 0.17264870502444837 0.069240929062294079 0.1748426209933136 0.064486756770241058 0.12548152742883895 0.12154624678649817 -0.010517047094143778 0.071851537079322819 0.057658711707783319 0.092929583290579487 0.033775731535877235 0.0077951973339186872
leaf_weight=1135.9490404129028 3963.2238284349442 398.13942992687225 502.48100829124451 1041.0737787485123 2413.4329873323441 2609.9256064891815 758.66440415382385 874.03171694278717 1485.0928263664246 889.56413853168488 8481.30462038517 3411.9727168083191 39640.239247441292 495.41186285018921 3209.8272510766983 1265.7994786500931 644.40925073623657 14294.669640302658 81.528081893920898 386.94509363174438 93.152823448181152 798.90629518032074 355.26390957832336 42.69839882850647 17775.383704543114 624.02755510807037 557.94086217880249 269.61880373954773 747.58544492721558 541.68089497089386
leaf_count=684 2024 129 260 565 1198 1404 503 416 872 581 5013 2048 28264 184 1751 527 220 9058 21 108 24 276 91 14 12136 212 190 75 287 263
internal_value=-6.78902e-05 0.0250064 -0.0102789 0.00443769 0.0418224 0.0128905 -0.0146349 0.0581457 0.000932871 -0.0153276 0.00812682 0.0172505 -0.0180692 0.0628768 0.026692 0.0356164 0.045614 -0.00106397 0.0570836 0.0872369 0.0720277 0.0472963 0.0971224 0.0165185 -0.00940195 0.0630811 0.0804696 0.110906 0.0518688 0.0301254
internal_weight=109790 31771.4 78018.5 17818.7 13305 18466.4 60199.8 6373.23 16820.8 59063.9 14503.2 6021.9 40398.9 997.893 6931.76 3679.23 3327.5 15779.8 1911.79 468.473 3045.73 1443.32 753.403 3252.53 18664.9 2292.33 920.712 362.772 1371.61 1415.71
internal_count=69398 16291 53107 10939 5802 10489 42168 2312 10495 41484 8465 3452 28767 444 3490 1725 1304 9930 625 129 1008 496 220 1765 12717 788 289 99 499 679
cat_boundaries=0 159 318 477 652 823 999 1173 1349 1491 1597 1756 1927 2049 2167 2326
cat_threshold=0 0 0 0 0 0 0 0 0 0 0 0 0 0 0 0 0 0 0 0 1048576 0 32768 0 0 0 0 0 0 0 0 4 0 0 0 0 0 0 0 134217728 0 0 0 0 0 0 0 0 0 0 0 0 0 32 0 0 0 0 1024 0 68157440 0 0 16777216 0 0 0 0 0 0 0 0 0 32 128 0 0 0 0 0 0 2097152 0 0 0 0 0 32 0 0 0 0 0 0 4194304 0 0 0 0 1048576 1082130432 0 0 0 0 13926404 0 0 0 0 0 0 0 0 0 0 0 0 0 0 0 2 1 0 0 0 0 0 0 0 0 2048 0 0 0 0 0 0 0 0 0 0 16 0 0 0 0 0 0 0 0 0 0 0 0 0 0 0 67108864 0 0 0 0 0 0 0 0 0 0 0 0 0 0 0 0 0 0 0 0 0 0 0 0 0 0 0 0 0 0 0 0 0 0 0 0 0 0 0 536870912 0 0 0 0 0 0 0 0 0 0 0 0 0 0 0 0 0 2147483648 0 0 524288 0 0 0 0 0 0 0 268435456 0 0 524297 1024 0 48 0 0 4194304 0 0 20971520 81920 0 0 0 0 0 0 0 0 0 0 0 0 0 0 0 0 0 0 146800640 0 0 0 0 311296 0 0 0 0 0 0 0 0 0 0 0 1048576 0 0 0 2 0 0 0 0 0 0 0 4 0 0 0 0 0 0 0 0 0 0 0 0 0 0 0 0 0 0 0 0 0 0 0 0 0 0 0 0 603979776 0 0 0 0 0 0 0 0 0 0 0 0 0 0 0 0 0 0 0 0 0 0 0 0 0 0 0 0 0 0 0 0 0 0 0 0 0 0 0 0 0 0 0 0 0 0 0 0 0 0 0 0 0 128 0 0 0 0 0 0 2417491968 0 0 0 0 0 0 0 0 0 0 1 1024 0 327744 0 0 0 64 0 0 81920 0 0 0 0 65536 4 0 0 0 0 0 0 0 0 0 0 0 0 146800641 0 0 0 0 16384 0 0 0 0 0 32 0 0 0 0 65536 1048576 0 0 0 0 0 0 0 0 0 0 2 0 0 0 0 0 0 0 0 0 0 0 0 0 0 0 0 0 0 0 0 0 0 0 0 0 0 0 0 0 2751463424 0 0 0 0 0 0 0 0 0 0 0 0 0 0 0 0 0 0 0 0 0 0 0 0 0 0 0 0 0 0 0 0 0 0 0 0 0 0 0 0 0 0 0 0 0 0 0 0 0 0 0 0 1024 0 0 0 0 2147483648 0 0 268435456 0 16384 0 0 0 0 0 256 0 2147483648 524296 2560 0 0 0 0 0 0 0 8388608 73728 0 0 0 131072 0 20 0 0 0 0 0 0 0 0 0 0 0 0 4194304 0 0 1024 0 1048576 0 32768 0 0 0 0 0 0 0 0 65536 0 0 0 1073741824 536870978 0 0 0 0 0 0 0 4 0 0 0 0 0 0 0 0 0 0 0 0 16 0 0 0 0 0 0 0 0 0 0 0 0 0 0 0 0 0 0 0 0 0 0 0 256 0 0 268435456 0 0 0 0 16384 0 0 0 0 8192 0 0 0 0 0 0 0 0 0 0 0 0 0 0 0 0 0 0 0 0 0 0 0 0 2097152 0 0 0 0 0 0 0 0 0 536870912 0 0 0 0 8 0 0 0 0 0 0 0 134217728 0 0 0 0 32 0 0 0 0 0 0 0 0 0 4194304 2 0 0 0 0 1024 65536 0 0 8388608 0 0 4194304 16384 0 0 2048 0 0 16 0 0 0 0 0 0 0 0 0 0 0 4194304 4194304 0 0 0 134217728 0 0 0 384 0 0 0 0 0 0 0 65536 8192 0 0 0 536870912 0 0 0 0 0 0 0 8 0 0 0 0 0 0 0 0 0 0 0 0 0 128 0 0 0 0 2 2097152 0 0 0 1073741840 0 0 0 0 0 0 0 0 64 0 0 0 0 0 0 0 4 0 0 0 0 0 0 0 0 0 0 0 0 0 0 0 0 0 0 0 0 0 0 0 0 0 0 0 0 0 0 0 0 0 0 0 0 0 0 0 0 0 0 0 0 0 0 0 0 0 0 0 0 0 0 0 0 0 2147483648 0 0 0 0 0 0 0 0 0 3221225472 0 0 0 8 4096 0 2712 0 0 4194304 0 0 4194304 0 0 0 0 0 0 0 0 0 0 0 0 0 0 0 0 0 0 0 0 0 0 0 0 1343488 0 0 0 0 0 0 0 0 524288 0 0 0 2097152 0 0 0 0 0 0 0 0 0 0 0 0 0 0 0 0 0 0 0 0 0 0 268435456 16 0 0 0 0 0 0 0 0 0 0 0 0 0 0 0 0 0 0 0 0 0 0 0 0 0 0 0 0 0 0 67371008 0 131072 0 0 0 0 0 0 0 0 0 0 0 0 0 0 0 0 0 0 0 0 35651584 0 0 0 0 0 0 0 2 0 0 0 0 2147483648 0 0 0 0 0 0 0 0 0 0 0 67108864 0 16 0 0 0 0 0 32768 0 0 0 33554576 2 0 0 2097152 0 262144 0 0 0 0 0 0 16777216 0 0 0 2147483648 0 0 4194304 0 2097152 0 36864 0 0 0 0 0 0 0 0 0 2147483648 0 0 0 0 0 0 0 0 65536 0 0 0 0 0 0 101711872 128 0 0 0 0 0 0 0 2 0 0 0 0 1 1 0 0 0 0 0 32 0 0 0 0 0 0 0 0 0 0 0 0 128 0 0 0 0 0 0 0 0 0 0 0 0 0 0 0 0 0 0 0 0 0 0 0 0 0 0 0 0 0 0 1048576 524288 0 0 0 0 0 0 0 0 0 0 0 0 0 0 0 0 0 0 0 0 0 0 0 0 0 0 0 0 0 0 0 0 0 0 0 0 0 0 0 0 0 0 0 0 0 0 0 0 0 0 0 0 134217728 0 0 0 0 268435488 0 0 0 0 0 0 0 0 0 2147483648 2 0 0 536870912 4608 8224 2099912 0 0 0 64 0 0 32768 0 0 0 128 0 5 0 0 0 0 0 0 0 0 0 0 0 0 1 0 0 0 0 1048576 0 0 0 0 0 0 0 0 0 0 0 0 4194304 0 0 0 262144 0 0 0 0 0 0 0 0 0 0 0 0 0 0 0 0 0 0 268435456 16 0 0 0 0 0 0 0 0 0 0 16 0 0 0 0 0 0 0 0 0 0 0 0 256 0 0 0 0 0 0 0 0 131072 0 0 0 0 0 0 0 0 0 0 0 0 0 131072 0 0 0 0 0 0 0 0 0 0 0 0 0 0 0 1048576 67108864 0 0 0 0 0 0 0 0 131072 0 0 0 536870912 0 0 0 0 131072 0 0 0 0 0 0 0 0 2147483648 1 0 0 0 0 0 0 0 0 1073742848 0 0 0 8 0 0 33024 0 0 0 0 0 0 32768 0 0 1073741824 128 0 4 0 0 0 0 4 0 0 0 0 0 0 4096 131072 0 0 65536 0 2101248 0 0 0 0 0 1073741824 0 0 0 0 0 1048576 0 0 2147483648 0 0 0 0 0 0 0 0 4 0 0 0 0 0 1 0 0 0 0 0 256 0 0 0 0 0 0 0 0 0 0 0 0 0 0 0 0 0 0 0 0 0 0 0 0 0 0 0 0 0 0 0 0 0 0 0 0 0 0 0 0 0 0 0 0 0 0 0 0 0 0 0 0 0 0 0 0 0 0 0 0 0 0 0 0 0 0 0 0 0 0 0 524288 0 0 0 0 0 0 0 0 0 16384 0 0 0 0 0 0 0 0 0 0 0 0 0 0 0 0 0 0 0 0 0 0 0 294912 0 0 0 0 0 0 0 0 0 0 0 0 0 0 0 0 0 0 0 0 0 0 0 0 0 0 0 0 0 0 0 0 0 0 0 0 0 0 0 0 0 0 0 0 0 0 0 0 0 0 0 0 0 0 0 0 0 0 0 0 0 0 0 0 0 0 0 0 0 0 0 524289 1024 0 0 0 0 0 0 0 16777216 16384 0 0 0 0 0 0 0 0 0 0 0 0 0 0 0 0 0 0 4194304 0 0 0 0 294912 0 0 0 0 0 0 0 0 0 0 0 0 0 0 0 0 0 0 0 0 0 0 0 0 0 0 0 0 0 0 0 0 0 0 0 0 0 0 0 0 0 0 0 0 0 0 0 0 0 0 0 0 536870912 0 0 0 0 0 0 0 0 0 0 0 0 0 0 0 0 0 0 0 0 0 0 0 0 0 0 0 0 0 0 33554432 0 0 0 0 0 0 0 0 0 268435456 0 0 0 0 0 0 0 0 0 0 0 0 0 0 0 0 0 4 0 537919488 0 0 16384 0 0 0 0 1024 0 1 536870912 4096 0 0 0 0 0 0 0 0 512 67108864 0 0 0 0 0 0 0 0 0 0 0 0 0 0 0 0 1048576 268436480 64 0 65536 0 1073741824 0 0 0 0 0 0 0 0 524288 0 0 8192 0 0 2147483648 2148532224 0 131072 0 0 0 0 0 0 0 0 0 0 0 0 0 0 0 0 0 0 64 0 0 0 0 0 0 0 0 0 0 2 0 0 0 0 0 0 0 0 0 0 0 0 0 0 0 0 4 0 0 0 0 0 0 0 0 0 0 0 0 0 0 0 0 0 0 0 0 0 0 0 0 0 0 0 0 0 0 0 0 0 0 0 0 0 0 0 0 0 0 0 0 0 0 0 0 0 0 0 0 0 0 0 0 0 0 0 0 524288 0 0 0 0 0 0 0 0 0 0 0 1024 0 0 0 0 0 0 0 0 0 0 0 0 0 0 0 0 0 0 0 0 0 0 0 0 0 0 0 138412032 0 0 0 0 0 0 0 0 0 0 0 0 0 0 0 0 0 0 0 0 2 0 0 0 0 0 0 0 0 0 0 0 0 0 0 0 0 0 0 0 0 0 0 0 0 0 0 0 0 0 0 0 0 0 0 0 0 0 0 0 0 0 0 0 0 0 0 0 0 0 0 0 0 0 0 0 0 0 0 0 0 0 0 0 0 0 0 0 0 0 0 0 1 0 0 0 0 0 0 0 0 16777216 65536 0 0 0 0 0 0 0 0 0 0 0 0 0 0 0 0 0 0 0 0 0 0 0 16384 0 0 0 0 0 0 0 0 0 0 0 1048576 0 0 0 0 0 0 0 0 0 0 0 0 0 0 0 0 0 0 0 0 0 0 0 0 0 0 0 0 0 0 0 0 0 0 0 0 0 0 0 0 0 0 0 0 0 0 0 0 0 0 0 0 0 0 0 0 0 2147483648 0 0 524288 0 0 0 0 0 0 0 0 0 0 1 1024 0 0 0 0 0 0 0 4194304 65536 0 0 0 0 0 0 0 0 0 0 0 0 0 0 0 0 0 0 0 0 0 0 0 294912 0 0 0 0 0 0 0 0 0 0 0 0 0 0 0 0 0 0 0 0 0 0 0 0 0 0 0 0 0 0 0 0 0 0 0 0 0 0 0 0 0 0 0 0 0 0 0 0 0 0 0 0 536870912
is_linear=0
shrinkage=0.05


Tree=8
num_leaves=31
num_cat=13
split_feature=15 6 9 19 19 19 19 16 15 19 19 18 18 15 19 18 19 16 16 19 19 19 22 19 15 0 6 13 16 18
split_gain=10549.6 2642.99 1521.59 1276.87 952.848 671.571 561.335 363.502 322.95 313.281 296.364 274.216 324.371 280.678 273.66 251.059 266.857 249.659 235.658 198.355 187.311 184.953 240.222 184.732 189.688 187.826 180.482 174.932 171.797 232.683
threshold=36.500000000000007 2.8333333333333335 0.27083333333333343 0 1 2 3 12.270833333333334 9.5000000000000018 4 5 5.5000000000000009 9.5000000000000018 238.50000000000003 6 4.5000000000000009 7 1.1458333333333337 9.1875000000000018 8 9 10 11 12 47.500000000000007 1.5000000000000002 5.5000000000000009 9.5000000000000018 1.729166666666667 21.500000000000004
decision_type=2 2 2 9 9 9 9 2 2 9 9 2 2 2 9 2 9 2 2 9 9 9 1 9 2 2 2 2 2 2
left_child=2 5 6 7 27 15 -1 11 10 -6 -8 21 -13 -14 18 19 28 -7 -5 -2 -19 -3 -23 25 -25 -9 -15 -4 -17 -30
right_child=1 3 4 14 9 17 8 23 -10 -11 -12 12 13 26 -16 16 -18 20 -20 -21 -22 22 -24 24 -26 -27 -28 -29 29 -31
leaf_value=0.022914049412428368 0.049826665749835963 0.026522873365128402 0.035814228618083026 0.024291620185186658 0.025574212660546103 -0.0027944498570396615 0.013594572796323529 0.063277597934968774 -0.0097162688389519948 -0.0022779112386450773 -0.018532376970795541 0.012761134834178123 0.038929623036098579 0.15193929743346013 0.014451939573365429 0.017516406098403294 0.010301080149405339 0.018703542765154079 0.05403926344462439 0.023602852691942365 0.0034247092778423986 0.071144872950405488 0.036706485467762028 0.14781673201308371 0.072934854946233085 0.014665209936391957 0.046249933389940275 0.081409650492379027 0.051957977005112767 0.16454501469132712
leaf_weight=961.82806181907654 1180.7733389139175 581.95767629146576 533.44551765918732 1951.3084743022919 1084.1366581916809 6589.5718460083008 727.77879405021667 569.76265168190002 17044.932761907578 13060.092734932899 38969.297444939613 1174.5019990205765 675.98418211936951 103.80805122852325 4294.8142954111099 192.46358919143677 3673.3766206502914 3643.5270850658417 1010.5425082445145 2041.2894504070282 4483.1127393245697 1626.3605437278748 855.32286942005157 88.910256862640381 1733.2534596920013 305.10596680641174 66.123424053192139 347.33035290241241 178.4150550365448 61.782413005828857
leaf_count=573 563 238 264 961 600 4016 481 167 11800 8310 28299 548 293 27 2312 99 1944 2093 420 994 2717 557 326 20 422 95 25 125 81 28
internal_value=-7.26179e-05 0.0216312 -0.0111387 0.0377931 0.00303429 0.0106062 -0.0148291 0.0518671 -0.0154702 -0.000126522 -0.0179446 0.0440625 0.0297634 0.05337 0.0225994 0.0229622 0.0147953 0.00443476 0.0343252 0.0334409 0.0103021 0.0534926 0.0594705 0.0667714 0.0761706 0.0458008 0.110814 0.0531907 0.0515233 0.0809171
internal_weight=109811 37082.1 72728.8 15037.8 15025 22044.3 57703.8 7781.09 56742 14144.2 39697.1 5084.06 2020.42 845.916 7256.67 7328.1 4106.04 14716.2 2961.85 3222.06 8126.64 3063.64 2481.68 2697.03 1822.16 874.869 169.931 880.776 432.661 240.197
internal_count=69398 18946 50452 6411 9299 12535 41153 2718 40580 8910 28780 2014 893 345 3693 3709 2152 8826 1381 1557 4810 1121 883 704 442 262 52 389 208 109
cat_boundaries=0 176 335 509 684 860 1034 1205 1364 1523 1699 1841 1842 2001
cat_threshold=0 0 0 0 0 0 0 0 0 0 0 0 0 0 0 0 0 0 0 0 0 0 0 0 0 0 0 0 0 0 0 0 0 0 0 0 0 0 0 0 0 0 0 0 0 0 0 0 0 0 0 0 0 0 0 0 0 2147483680 0 0 1572864 0 0 0 0 0 0 0 268435456 0 0 524297 1024 32 176 0 0 4194304 0 0 20971520 81920 0 0 0 0 0 0 0 0 0 0 0 0 0 0 0 0 0 0 146800640 0 0 0 0 311296 0 0 0 0 0 0 0 0 0 0 0 1048576 0 0 0 2 0 0 0 0 0 0 0 4 0 0 0 0 0 0 0 0 0 0 0 268435456 0 0 0 0 0 0 0 0 0 0 0 0 0 0 0 0 603979776 0 0 0 0 0 0 0 0 0 0 0 0 0 0 0 0 131072 0 0 0 0 0 0 0 0 0 0 0 0 0 0 0 0 0 0 0 0 1048576 0 32768 0 0 0 0 0 0 0 0 4 0 0 0 0 0 0 0 671088640 0 0 0 0 0 0 0 0 0 0 0 0 0 0 0 0 0 0 0 0 0 0 0 16777216 0 0 0 4194304 0 0 0 0 0 32 65664 0 0 0 0 0 0 2113536 0 0 0 0 0 32 0 0 0 0 0 0 4194304 0 0 0 0 0 1086324736 0 0 0 0 5275652 0 0 0 0 0 0 0 0 0 0 0 8192 0 0 0 536870912 1 0 0 0 0 0 0 12 0 2048 0 0 0 0 0 0 0 0 0 0 16 0 0 0 0 0 2 0 0 0 0 0 0 0 0 0 67108864 0 0 0 0 0 0 0 0 0 0 0 0 0 0 0 0 0 0 0 0 0 0 0 0 0 0 0 0 0 0 0 0 0 0 0 0 0 0 0 0 0 0 0 0 0 0 0 0 0 0 0 0 0 128 0 0 0 2147483648 0 0 2417491968 0 0 0 0 0 0 1073741824 0 0 0 1 1024 0 66112 0 0 0 0 0 0 81920 16777216 0 0 0 0 4 0 0 0 0 0 0 0 0 0 0 0 0 146800640 0 0 0 0 1359872 0 0 0 0 0 0 0 0 0 0 65536 1048576 0 0 0 0 0 0 0 0 0 0 2 0 0 0 0 0 0 0 0 0 0 0 0 268435456 0 0 0 0 0 0 0 0 0 0 0 16 0 0 0 0 2751463424 0 0 0 0 0 0 0 0 0 0 0 0 0 0 262144 0 0 0 0 0 0 0 0 0 0 0 0 0 0 0 0 0 0 0 0 0 0 0 0 0 0 0 0 0 0 0 0 0 0 0 0 0 0 0 0 268435456 0 0 0 0 0 0 0 0 0 0 0 0 0 0 0 0 2147483776 4 0 268435456 0 16384 0 0 0 0 128 256 0 2147483648 524288 2560 0 0 0 0 0 0 0 8388608 0 0 0 0 131072 0 4 0 0 0 0 0 0 0 0 0 0 0 0 0 0 0 1024 0 0 0 32768 0 0 0 0 0 0 524288 0 65536 0 0 0 1073741824 536870978 0 0 0 0 0 0 0 4 0 0 0 0 0 0 0 0 0 0 0 0 16 0 0 0 0 0 0 0 0 0 0 0 0 0 0 0 0 0 0 0 0 0 0 0 256 0 0 268435456 0 0 0 0 16384 0 0 0 0 0 0 0 0 0 0 0 0 0 0 0 0 0 0 0 0 0 0 0 0 0 0 0 0 0 0 0 0 0 0 0 0 0 0 0 131072 0 0 0 536870912 0 0 0 0 0 0 0 0 134217728 32 0 0 0 0 0 0 67112960 0 0 0 0 0 0 0 2 0 2147483648 524288 0 1024 256 0 0 8388608 0 0 16777216 0 0 0 2048 128 0 0 0 0 0 0 0 0 0 0 0 0 0 5242880 0 0 0 0 134217728 2101248 0 0 0 0 0 0 0 0 0 0 65536 1048576 0 0 2147483648 0 0 0 0 0 0 0 0 0 0 0 0 0 0 1 0 0 0 0 0 0 0 128 0 0 0 0 1024 0 0 0 0 1073741824 0 0 0 0 0 0 0 0 64 0 0 0 0 0 0 0 4 0 0 0 0 131072 0 0 0 0 0 0 0 0 0 0 0 0 0 0 0 0 0 0 0 0 35651584 0 0 0 0 0 0 0 2 0 0 0 0 2147483648 0 0 0 0 0 0 0 0 0 0 0 67108864 0 0 0 0 0 0 1024 32768 0 0 0 33554448 2 0 0 2097152 0 262144 0 0 0 0 0 0 16777216 0 0 0 2147483648 0 0 4194304 0 2097152 0 36864 0 0 0 0 0 0 0 0 0 2147483648 0 0 0 0 0 0 0 0 0 0 0 0 0 0 0 68157440 128 0 0 0 0 0 0 0 2 0 0 0 0 1 1 0 0 0 0 0 32 0 0 0 0 0 0 0 0 0 0 0 0 128 0 0 0 0 134217728 0 1 0 0 0 0 0 0 0 0 0 0 0 0 0 0 0 0 0 0 0 0 0 0 0 1048576 524288 0 0 0 0 0 0 0 0 0 0 0 0 0 0 0 0 0 0 0 0 0 0 0 0 0 0 0 0 0 0 0 0 0 0 0 0 0 0 0 536870912 0 0 0 0 0 0 0 0 0 0 0 0 0 32 0 0 0 268435456 0 0 0 0 0 0 0 0 0 0 0 0 0 536870912 512 8192 2098760 0 0 0 64 0 0 32768 0 0 1073742848 192 0 5 0 0 0 0 0 0 0 0 0 0 0 4096 536870913 0 0 0 0 1179648 0 0 0 0 0 0 0 0 0 0 65536 0 4194304 0 0 0 262144 0 0 0 0 0 0 0 0 2048 0 0 0 0 0 0 0 0 0 0 16 0 0 0 0 0 0 0 0 0 0 0 0 0 0 0 0 0 0 0 0 0 0 0 256 0 0 0 16 0 0 0 0 0 0 0 0 0 0 0 0 0 0 0 0 0 0 0 0 0 0 0 0 0 0 0 0 0 0 0 0 0 0 0 0 0 0 0 0 0 0 0 0 0 0 0 0 0 0 0 0 0 0 0 0 0 0 0 0 2149056512 0 0 0 0 0 0 0 0 0 0 0 0 0 0 0 0 0 0 0 0 0 0 0 0 0 0 4 0 0 0 0 0 0 0 0 0 0 0 0 146800640 0 0 0 0 0 0 0 0 0 0 0 0 0 0 0 0 0 0 0 0 0 0 0 0 0 0 0 0 0 0 0 0 0 0 0 0 0 0 0 0 0 0 0 0 0 0 0 0 0 0 0 0 0 0 0 0 0 536870912 0 0 0 0 0 0 0 0 0 0 0 0 0 0 0 0 0 0 0 0 0 0 0 0 0 0 0 0 0 0 0 0 0 0 0 0 0 0 0 0 0 0 0 0 0 0 0 0 0 0 0 0 0 0 0 0 0 0 0 0 0 0 0 0 0 0 0 1073741824 0 0 0 1 0 0 576 0 0 0 0 0 0 16384 0 0 0 0 0 0 0 0 0 0 0 0 0 0 0 0 0 0 0 0 0 0 0 16384 0 0 0 0 0 0 0 0 0 0 0 1048576 0 0 0 0 0 0 0 0 0 0 0 0 0 0 0 0 0 0 0 0 0 0 0 0 0 0 0 0 0 0 0 0 0 0 0 0 0 0 0 0 2214592512 0 0 0 0 0 0 0 0 0 0 0 0 0 0 0 0 0 0 0 0 0 0 0 0 0 0 0 0 0 0 0 4 0 0 0 0 0 0 0 0 0 0 0 0 0 0 0 0 131072 0 0 0 0 0 0 0 0 0 0 0 67108864 0 0 262144 0 0 0 0 268435522 0 0 537395208 1052672 8224 11448 0 0 4194304 64 0 4194304 0 0 0 0 0 65536 1 0 0 0 0 0 0 0 0 0 0 0 0 0 0 0 0 0 0 0 0 0 0 0 32 0 0 524288 0 0 0 2097152 0 0 2 0 0 0 0 0 0 0 0 0 0 0 0 0 0 0 0 0 0 0 0 0 0 0 0 0 0 0 0 0 0 0 0 0 0 0 0 0 0 0 0 0 0 0 0 256 0 0 0 0 0 0 0 0 131072 0 0 0 0 0 0 0 0 0 0 0 0 0 0 0 0 0 0 0 0 0 0 0 0 0 0 0 0 0 0 0 0 0 0 0 0 0 0 0 0 0 0 0 0 0 0 0 0 0 0 0 0 0 0 0 0 0 2147483648 0 0 524288 0 0 0 0 0 0 0 0 0 0 0 0 32 160 0 0 0 0 0 0 0 0 0 0 0 0 0 0 0 0 0 0 0 0 0 0 0 0 0 8388608 0 0 0 0 0 0 0 0 0 0 0 0 0 0 0 0 1048576 0 0 0 0 0 0 0 0 0 0 0 0 0 0 0 0 0 0 0 0 0 0 0 268435456 75 0 0 0 0 0 0 0 0 0 0 0 0 0 0 0 0 0 0 0 0 0 0 0 0 0 0 0 0 0 0 0 0 0 0 0 0 0 0 0 0 0 0 0 0 0 0 0 0 0 0 0 0 0 0 0 0 0 0 0 0 0 0 0 0 0 0 0 0 0 0 0 1 1024 0 16 0 0 0 0 0 20971520 0 0 0 0 0 0 0 0 0 0 0 0 0 0 0 0 0 0 0 138412032 0 0 0 0 0 0 0 0 0 0 0 0 0 0 0 0 0 0 0 0 0 0 0 0 0 0 0 0 0 0 0 0 0 0 0 0 0 0 0 0 268435456 0 0 0 0 0 0 0 0 0 0 0 0 0 0 0 0 67108864
is_linear=0
shrinkage=0.05


Tree=9
num_leaves=31
num_cat=12
split_feature=9 19 15 16 19 19 19 19 9 19 16 19 18 18 19 16 16 22 19 19 19 0 5 18 9 18 6 18 9 18
split_gain=9936.28 2568.72 1604.73 685.688 673.198 638.326 626.727 396.67 298.87 285.717 272.604 263.343 260.077 248.867 248.841 218.646 217.129 200.035 287.97 190.119 173.758 167.928 171.558 167.396 165.523 154.897 298.251 169.395 194.183 167.953
threshold=0.39583333333333343 0 16.500000000000004 5.5625000000000009 1 2 3 4 0.10416666666666667 5 14.270833333333334 6 5.5000000000000009 5.5000000000000009 7 7.3541666666666679 2.0208333333333339 8 9 10 11 1.5000000000000002 16.500000000000004 9.5000000000000018 2.2291666666666674 20.500000000000004 6.5000000000000009 4.5000000000000009 2.6458333333333335 3.5000000000000004
decision_type=2 9 2 2 9 9 9 9 2 9 2 9 2 2 9 2 2 1 9 9 9 2 2 2 2 2 2 2 2 2
left_child=2 3 6 13 10 -4 -1 16 20 -10 12 -7 -3 -2 15 -9 -6 25 -19 -13 -8 22 -20 -15 -18 27 -27 29 -29 -5
right_child=1 4 5 17 7 11 8 14 9 -11 -12 19 -14 23 -16 -17 24 18 21 -21 -22 -23 -24 -25 -26 26 -28 28 -30 -31
leaf_value=0.029750024129555814 0.039087845467527388 0.036235307138961302 0.024322628211193218 0.061830045091709807 0.0080442983080164492 0.011358948453701417 0.0079180234326587575 0.0092848473892678026 0.019105542405109179 -0.012284218623239222 0.0608538988165261 0.0058348421665149605 0.011658685442822104 0.0040463916757624936 0.00038938387402270391 0.038515326854256876 0.025838629792384951 0.024125921171329473 0.063618970501243058 -0.0073101848109952371 -0.019501988777315935 0.039793055383258259 0.13939490033212346 0.031205232199052677 0.081287757566890828 0.16751684424275515 0.051570089291056491 0.029482430010580596 0.090685121999151574 0.10658667963694368
leaf_weight=748.49819684028625 3147.0446264743805 2374.5355868339539 2488.3430806398392 557.35499858856201 2229.755232334137 2949.4799598455429 588.4706963300705 3291.8927617073059 749.04037225246429 17431.010530114174 607.47056579589844 3405.9902857542038 1969.1432045698166 1156.6836470365524 10466.306367874146 794.06936550140381 3245.6450020074844 978.62441670894623 1415.5172144174576 14182.999450325966 31638.113280534744 851.09911572933197 78.855628967285156 1113.5997126102448 140.41102623939514 109.95803284645081 111.91194033622742 497.13049793243408 175.30283737182617 335.95618975162506
leaf_count=437 1264 1086 1304 144 1226 1738 412 1891 480 12306 201 2091 983 602 6452 411 1564 302 383 9402 23534 254 17 529 58 26 27 151 41 82
internal_value=-7.69692e-05 0.0216176 -0.0105023 0.0423399 0.0129096 0.000458646 -0.0154363 0.00884333 -0.01611 -0.0109872 0.0294219 -0.00244325 0.0250939 0.0299856 0.00447924 0.014929 0.0201239 0.0555157 0.0476186 -0.00476287 -0.0190049 0.0572767 0.0676175 0.0173681 0.028138 0.0695449 0.109033 0.0643935 0.0454379 0.0786621
internal_weight=109830 35648.3 74181.9 10529 25119.2 23026.8 51155.1 20168.1 50406.6 18180.1 4951.15 20538.5 4343.68 5417.33 14552.3 4085.96 5615.81 5111.71 3324.1 17589 32226.6 2345.47 1494.37 2270.28 3386.06 1787.61 221.87 1565.74 672.433 893.311
internal_count=69398 17694 51704 3822 13872 14535 37169 11602 36732 12786 2270 13231 2069 2395 8754 2302 2848 1427 956 11493 23946 654 400 1131 1622 471 53 418 192 226
cat_boundaries=0 159 330 489 619 795 970 1144 1307 1308 1414 1590 1761
cat_threshold=0 0 0 0 8192 0 0 0 0 0 0 0 0 0 0 0 0 0 0 0 0 0 32768 0 0 0 0 0 0 0 0 0 0 0 0 0 0 0 0 134217728 0 0 0 0 0 0 0 0 0 0 0 0 0 0 0 0 0 0 0 0 1572864 0 0 0 0 0 0 0 0 0 0 524289 1024 32 0 0 0 0 0 0 20971520 2179072 0 0 0 0 0 4 0 0 0 0 0 0 4194304 0 0 0 0 0 1220542464 0 0 0 0 311300 0 0 0 0 0 0 0 0 0 0 0 1048576 0 0 0 2 1 0 0 0 0 0 0 4 0 2048 0 0 0 0 0 0 0 0 0 0 0 0 0 0 0 0 0 0 0 0 0 0 0 0 0 262144 603979776 0 0 0 0 0 0 0 0 0 0 0 0 0 0 0 0 0 0 0 0 1048576 0 0 0 0 0 0 0 0 2097152 0 0 0 0 0 0 0 0 0 536870912 0 0 0 0 0 0 0 0 0 0 0 0 0 0 0 0 0 2147483648 1024 0 67108864 0 0 16777216 0 0 0 0 0 0 0 1073741832 0 0 208 0 4 4194304 4194304 0 0 0 0 0 0 0 0 32 0 0 0 0 0 0 0 0 0 0 0 524288 536870913 0 0 0 0 13631488 0 0 0 0 0 0 0 0 0 0 0 0 0 0 0 0 0 0 0 0 0 0 2 8 0 0 0 0 0 4096 0 0 0 0 0 268435456 16 128 0 0 0 0 0 0 0 0 0 0 0 0 0 0 2147483648 0 0 0 0 0 0 0 256 0 0 0 16 0 0 0 0 0 0 0 0 0 0 0 0 0 0 0 0 0 0 0 0 0 0 0 0 0 0 0 0 0 262144 0 0 0 0 0 0 0 0 0 0 0 0 0 0 0 0 0 0 0 0 0 0 0 0 0 0 0 2147483808 0 0 2148532224 0 0 0 0 0 0 4194304 0 0 0 0 4096 0 66240 0 0 0 0 0 0 65536 0 0 0 64 0 21 0 0 0 0 0 0 0 0 0 0 0 0 146866176 0 0 0 0 1097728 0 0 0 0 0 0 0 0 524288 0 0 8192 0 0 0 0 0 0 0 0 0 0 2 0 0 0 0 0 0 0 0 0 0 0 0 0 0 0 0 0 0 0 0 0 0 0 0 16 0 0 0 0 2684354560 0 0 0 0 0 0 0 16384 0 0 0 0 0 0 0 0 0 0 0 0 33554432 0 0 0 0 0 0 0 2 0 0 0 0 0 0 0 262144 0 0 0 0 0 0 0 0 0 0 16 0 0 0 0 1024 0 0 0 0 0 0 0 268435456 2097152 0 0 0 0 0 1152 256 0 2147483648 524288 512 32 0 0 0 0 0 0 8388608 0 0 0 0 131136 0 4 0 0 0 0 0 0 0 0 0 0 0 8192 4194304 0 0 0 0 4194304 0 67108864 0 0 0 0 0 0 0 0 65536 0 0 0 1073741824 536870978 1 0 0 0 0 64 0 4 0 0 0 0 0 0 0 0 0 0 0 0 0 0 0 0 0 0 0 0 0 0 0 0 0 0 0 0 0 0 67108864 4 0 0 0 0 0 0 0 131072 0 0 0 0 0 0 0 0 0 0 0 0 134217728 128 0 0 0 268435488 0 0 2415919104 0 0 0 0 1048576 0 0 268435458 0 0 536870912 1049088 9216 512 0 0 0 64 0 0 32768 0 0 1073741824 128 0 1 0 0 0 2147483648 0 0 0 0 0 0 64 0 0 0 0 0 134217728 0 0 0 0 0 0 1073741824 0 0 0 0 65536 0 4194304 0 0 0 0 0 0 0 0 0 0 0 0 0 0 0 0 1 0 0 0 0 0 0 0 0 0 0 0 0 0 0 0 0 0 16 0 0 0 0 0 0 0 0 0 0 0 0 0 0 0 0 0 0 0 0 0 131072 0 0 0 64 0 0 0 0 0 0 0 0 0 0 0 0 0 0 0 0 0 0 0 0 0 0 0 0 0 0 0 0 0 0 268435458 0 0 0 0 0 0 0 0 536870912 262144 0 0 0 262144 0 0 0 0 65536 0 0 0 33554432 0 0 1610612736 0 0 16777216 0 0 0 0 0 0 0 0 0 0 0 0 0 0 256 0 0 1024 0 0 2048 0 0 0 0 0 0 2147483648 4 0 0 0 0 0 0 5242880 65537 64 0 0 0 1073741824 0 32768 0 0 0 0 0 0 0 0 2 8192 6291456 0 0 0 65536 0 0 0 0 0 0 0 0 65536 0 0 0 0 0 0 0 0 0 0 0 128 0 0 0 0 0 0 0 0 524288 0 0 0 0 0 0 0 0 0 0 0 0 0 0 0 0 0 0 0 0 0 16384 0 0 0 0 0 0 0 0 0 0 0 0 0 0 0 0 0 0 0 0 0 0 0 0 0 0 0 0 0 0 0 0 0 0 0 0 0 0 0 0 268435456 0 0 0 0 0 0 0 0 0 0 0 134217728 0 0 0 0 0 0 0 528384 0 0 16384 0 0 0 1073742080 258 0 0 1 1024 8192 3360 0 0 8388608 0 0 0 0 0 0 2048 0 0 0 0 0 0 0 4 0 0 0 0 0 0 1052672 268435456 0 0 0 0 262144 0 0 0 0 0 0 0 0 0 0 65536 0 0 0 2147483648 2 0 0 0 0 0 0 0 0 0 0 0 0 0 0 0 0 0 0 0 0 16 0 0 0 0 0 0 2097152 0 0 0 0 0 0 0 0 0 0 0 0 0 0 0 0 0 0 0 268435456 4 0 0 67108864 0 0 0 0 0 0 0 0 0 0 0 0 0 0 0 0 0 0 0 0 0 0 0 0 0 0 0 0 0 1048576 0 0 0 0 0 0 0 0 0 0 268435456 0 0 0 0 0 0 0 0 0 0 0 0 32 0 0 0 8388608 8192 0 0 0 0 0 0 0 0 3221225472 0 0 0 32 4096 0 109608 0 0 0 0 0 0 0 16777216 0 0 0 0 16777232 0 0 0 0 0 0 0 0 0 0 0 1048576 0 0 0 16777216 0 2101248 0 0 0 0 0 0 0 0 0 0 0 2097152 2097152 0 0 0 262144 0 0 0 0 0 0 0 0 0 0 0 0 0 0 0 1073741824 0 0 256 0 0 0 0 0 0 0 0 0 0 0 1073741824 0 0 0 0 0 0 0 0 64 10 0 0 0 0 0 0 0 0 0 0 0 0 0 0 0 0 0 0 0 0 0 0 0 0 0 0 0 0 0 0 0 0 0 0 0 0 0 0 0 134217728 0 0 0 0 0 0 0 0 0 0 0 0 0 0 0 0 0 0 0 0 1048576 0 0 0 0 0 0 0 0 0 0 0 1024 32 0 0 0 0 0 0 20971520 0 0 0 0 0 0 0 0 0 0 0 0 0 0 0 0 0 0 0 134217728 0 0 0 0 294912 0 0 0 0 0 0 0 0 0 0 0 0 0 0 0 0 0 0 0 0 2097152 0 0 0 0 0 0 33554432 0 0 0 4 0 0 0 0 0 0 0 0 0 0 0 536870912 0 0 0 0 0 0 0 0 0 0 0 0 0 268435456 0 0 0 0 0 0 0 0 0 0 0 0 3 537395336 2048 0 2097160 0 0 0 0 0 0 16384 83886080 0 0 0 65536 0 0 0 0 0 0 0 0 0 0 0 0 524288 131072 0 0 0 0 0 0 0 0 0 0 0 0 0 0 0 0 0 2097152 0 0 2147483648 0 131072 0 0 0 0 0 0 0 0 0 0 0 0 0 0 0 0 0 268435456 0 0 0 0 0 0 1026 131072 0 0 0 2 0 0 0 0 67108864 0 0 0 0 0 0 0 256 0 0 0 0 0 0 262144 0 131072 0 0 0 0 2048 0 0 0 0 0 1342177280 0 0 0 0 0 0 0 0 0 1048608 0 0 0 0 0 0 0 1 1048576 0 0 0 2147483648 0 0 0 0 0 0 0 0 0 0 0 0 0 0 131072 0 0 0 4194304 32832 0 0 0 0 0 0 0 0 0 0 0 0 0 0 4 0 0 0 0 0 0 0 0 0 0 2097152 0 12288 0 0 0 0 0 0 0 0 0 0 0 0 0 0 0 0 0 0 16 0 0 0 0 2097152 0 0 128 0 0 0 0 0 0 0 0 2097152 0 16777216 0 8 0 131072 0 0 0 2 0 0 0 0 0 0 0 0 0 0 0 0 524288 128 0 256 0 0 0 0 0 0 0 0 0 0 0 0 0 0 0 0 0 0 0 0 0 0 0 0 0 0 4
is_linear=0
shrinkage=0.05


Tree=10
num_leaves=31
num_cat=14
split_feature=15 6 9 19 19 19 19 15 19 19 19 0 20 9 16 18 19 19 15 7 16 9 15 18 16 19 8 19 19 19
split_gain=9364.19 2132.84 1400.61 972.137 844.747 585.014 569.513 313.39 277.56 258.796 244.075 240.511 376.217 338.126 238.797 197.726 228.463 187.834 209.482 194.254 372.028 184.024 197.406 189.065 177.523 171.86 165.702 161.899 160.649 158.941
threshold=35.500000000000007 2.8333333333333335 0.27083333333333343 0 1 2 3 12.500000000000002 4 5 6 1.0000000180025095e-35 7 2.2708333333333335 1.1458333333333337 4.5000000000000009 8 9 100.50000000000001 5.2500000000000009 19.208333333333339 0.56250000000000011 254.50000000000003 5.5000000000000009 9.1875000000000018 10 1.9583333333333337 11 12 13
decision_type=2 2 2 9 9 9 9 2 9 9 9 2 9 2 2 2 9 9 2 2 2 2 2 2 2 9 2 9 9 9
left_child=2 5 6 11 -4 15 -1 9 -6 -8 24 17 13 -13 -7 29 -17 -3 19 20 -19 -20 23 -23 -5 -16 -24 -10 -9 -2
right_child=1 3 4 10 8 14 7 28 27 -11 -12 12 -14 -15 25 16 -18 18 21 -21 -22 22 26 -25 -26 -27 -28 -29 -30 -31
leaf_value=0.021479762261718025 0.044227741198293077 0.038831872579357787 0.047703296633363548 0.022503296083392361 0.023443123202420559 -0.0027886564084192373 0.010491718060872518 0.012026633838347659 0.016291238657315573 -0.017892110417748779 0.012873765663136151 0.042724432056481403 0.028678243726000766 0.088782537366236869 -0.0068388230947705993 0.046129876535082437 0.0094736723275785587 0.080854572552318316 0.12222789538447124 0.019182229855897598 0.18647375103254918 0.055998182880795527 0.12614888043546499 0.010065420468755321 0.046840457154223275 0.012629862124072756 0.044989882216167842 -0.0042556614003237056 -0.0098917799074588024 0.021315663165870899
leaf_weight=1066.427112698555 1277.3175027370453 1166.5151429176331 966.08978354930878 2161.3028560876846 1107.5807620286942 6887.2871075868607 816.65571022033691 894.82917237281799 1035.6655111312866 41570.202271223068 4517.4422134160995 1260.4787493944168 3490.4113693237305 582.68594038486481 1335.0638072490692 475.46659374237061 3600.4281678199768 499.13024544715881 92.14104163646698 88.613213300704956 100.09322381019592 586.43445014953613 134.456547498703 362.5193840265274 1146.9278386831284 7402.0331282615662 118.16242945194244 11565.429327130318 11494.499497056007 2046.5270215272903
leaf_count=621 564 354 402 1017 590 4185 545 593 619 31168 2369 450 1212 154 821 211 1844 140 32 22 20 141 23 107 435 4262 28 7444 8082 943
internal_value=-8.11607e-05 0.0194661 -0.0109837 0.0333011 0.00276232 0.00966716 -0.014596 -0.0152995 -0.00043928 -0.017347 0.0205017 0.0450333 0.0386178 0.0569758 0.00417081 0.0212383 0.0138862 0.0560458 0.0656521 0.088279 0.098497 0.0541295 0.0489074 0.0384509 0.0308475 0.0096616 0.0881868 -0.00255536 -0.00830698 0.0303177
internal_weight=109849 39331.4 70517.4 16307.3 14674.8 23024.1 55842.6 54776.2 13708.7 42386.9 7825.67 8481.64 5333.58 1843.16 15624.4 7399.74 4075.89 3148.07 1981.55 687.837 599.223 1293.71 1201.57 948.954 3308.23 8737.1 252.619 12601.1 12389.3 3323.84
internal_count=69398 19334 50064 6504 9055 12830 41009 40388 8653 31713 3821 2683 1816 604 9268 3562 2055 867 513 182 160 331 299 248 1452 5083 51 8063 8675 1507
cat_boundaries=0 159 318 492 667 843 1017 1193 1194 1353 1512 1687 1863 2037 2196
